{"learner":{"attributes":{"scikit_learn":"{\"_estimator_type\": \"classifier\"}"},"feature_names":[],"feature_types":[],"gradient_booster":{"model":{"cats":{"enc":[],"feature_segments":[],"sorted_idx":[]},"gbtree_model_param":{"num_parallel_tree":"1","num_trees":"100"},"iteration_indptr":[0,1,2,3,4,5,6,7,8,9,10,11,12,13,14,15,16,17,18,19,20,21,22,23,24,25,26,27,28,29,30,31,32,33,34,35,36,37,38,39,40,41,42,43,44,45,46,47,48,49,50,51,52,53,54,55,56,57,58,59,60,61,62,63,64,65,66,67,68,69,70,71,72,73,74,75,76,77,78,79,80,81,82,83,84,85,86,87,88,89,90,91,92,93,94,95,96,97,98,99,100],"tree_info":[0,0,0,0,0,0,0,0,0,0,0,0,0,0,0,0,0,0,0,0,0,0,0,0,0,0,0,0,0,0,0,0,0,0,0,0,0,0,0,0,0,0,0,0,0,0,0,0,0,0,0,0,0,0,0,0,0,0,0,0,0,0,0,0,0,0,0,0,0,0,0,0,0,0,0,0,0,0,0,0,0,0,0,0,0,0,0,0,0,0,0,0,0,0,0,0,0,0,0,0],"trees":[{"base_weights":[-2.2762988E-8,-6.8083465E-1,1.9056389E0,-1.7681267E0,-6.328524E-1,9.562996E-2,2.817451E-2,-3.3398002E-1,-9.6363634E-2,-5.682105E-1,-1.0700446E0,-6.666667E-2,5.6227263E-2,-9.9097645E-1,-4.724401E-1,-4.0747157E-1,-1.6398546E0,-6.8125075E-1,-1.6548625E0,-6.82308E-1,-2.7343267E-1,8.041507E-1,-8.3149344E-1,-9.71831E-2,-7.429732E-1,5.307769E-3,-5.1555663E-2,-8.943584E-2,2.817451E-2,-3.8305406E-2,2.297253E-2,3.8813163E-2,-1.6895695E-2,-6.363636E-2,6.484942E-2,-1.7527757E-3,-7.873605E-2,2.7371634E-2,-6.443227E-2],"categories":[],"categories_nodes":[],"categories_segments":[],"categories_sizes":[],"default_left":[0,0,0,0,0,0,0,0,0,0,0,0,0,0,0,0,0,0,0,0,0,0,0,0,0,0,0,0,0,0,0,0,0,0,0,0,0,0,0],"id":0,"left_children":[1,3,5,7,9,-1,-1,11,-1,13,15,-1,-1,17,19,21,23,25,27,29,31,33,35,-1,37,-1,-1,-1,-1,-1,-1,-1,-1,-1,-1,-1,-1,-1,-1],"loss_changes":[1.3058583E3,3.7568787E1,1.3971558E0,6.3825455E0,1.9507446E1,0E0,0E0,7.7444425E0,0E0,2.4724686E1,3.3519043E1,0E0,0E0,2.2315567E1,2.1080887E1,2.2862242E1,1.1731247E1,2.1994045E1,1.1569649E1,2.4001556E1,1.806624E1,1.3633738E1,1.917775E1,0E0,1.0460286E1,0E0,0E0,0E0,0E0,0E0,0E0,0E0,0E0,0E0,0E0,0E0,0E0,0E0,0E0],"parents":[2147483647,0,0,1,1,2,2,3,3,4,4,7,7,9,9,10,10,13,13,14,14,15,15,16,16,17,17,18,18,19,19,20,20,21,21,22,22,24,24],"right_children":[2,4,6,8,10,-1,-1,12,-1,14,16,-1,-1,18,20,22,24,26,28,30,32,34,36,-1,38,-1,-1,-1,-1,-1,-1,-1,-1,-1,-1,-1,-1,-1,-1],"split_conditions":[2E0,3E0,1.6947389E0,6.8E1,8.63E2,9.562996E-2,2.817451E-2,5.12E4,-9.6363634E-2,-3.8152006E-1,2.3E1,-6.666667E-2,5.6227263E-2,-3.5562658E-1,1E0,-3.6661267E-1,1.7E1,1E0,8.16E2,2E1,7E0,-1.2503968E0,-1.9947837E-1,-9.71831E-2,3.2E1,5.307769E-3,-5.1555663E-2,-8.943584E-2,2.817451E-2,-3.8305406E-2,2.297253E-2,3.8813163E-2,-1.6895695E-2,-6.363636E-2,6.484942E-2,-1.7527757E-3,-7.873605E-2,2.7371634E-2,-6.443227E-2],"split_indices":[2,15,5,18,18,0,0,14,0,1,15,0,0,6,2,1,19,7,18,19,16,5,5,0,0,0,0,0,0,0,0,0,0,0,0,0,0,0,0],"split_type":[0,0,0,0,0,0,0,0,0,0,0,0,0,0,0,0,0,0,0,0,0,0,0,0,0,0,0,0,0,0,0,0,0,0,0,0,0,0,0],"sum_hessian":[1.0045E3,7.405601E2,2.6393988E2,2.9784527E1,7.107756E2,2.6215536E2,1.7845268E0,3.2845268E0,2.65E1,6.2122314E2,8.955243E1,2E0,1.2845268E0,1.1300959E2,5.0821356E2,4.219885E1,4.735358E1,7.844054E1,3.4569054E1,2.4617519E2,2.6203836E2,1.0707161E1,3.1491688E1,3.45E1,1.285358E1,2.4345268E1,5.409527E1,3.2784527E1,1.7845268E0,2.2964897E2,1.6526215E1,1.4526215E1,2.4751215E2,1.75E0,8.957161E0,1.5707161E1,1.5784527E1,3.8190536E0,9.034527E0],"tree_param":{"num_deleted":"0","num_feature":"20","num_nodes":"39","size_leaf_vector":"1"}},{"base_weights":[-2.8597878E-4,-6.477251E-1,1.8149985E0,-1.6867979E0,-6.019475E-1,9.107738E-2,2.7275233E-2,-3.199662E-1,-9.1929585E-2,-5.401515E-1,-1.0203685E0,-6.449301E-2,5.467121E-2,-9.4323635E-1,-4.4890374E-1,-3.892652E-1,-1.5636528E0,-1.6956711E0,-6.869937E-1,-6.484854E-1,-2.5970057E-1,7.6479137E-1,-7.9301244E-1,-9.267685E-2,-7.0903E-1,-9.323097E-2,-3.321309E-2,-1.8871881E-2,-7.171403E-2,5.4299623E-2,-3.4950614E-2,4.1581284E-2,-1.581348E-2,-6.1651945E-2,6.19922E-2,-1.6703822E-3,-7.514512E-2,2.5480934E-3,-8.208938E-2],"categories":[],"categories_nodes":[],"categories_segments":[],"categories_sizes":[],"default_left":[0,0,0,0,0,0,0,0,0,0,0,0,0,0,0,0,0,0,0,0,0,0,0,0,0,0,0,0,0,0,0,0,0,0,0,0,0,0,0],"id":1,"left_children":[1,3,5,7,9,-1,-1,11,-1,13,15,-1,-1,17,19,21,23,25,27,29,31,33,35,-1,37,-1,-1,-1,-1,-1,-1,-1,-1,-1,-1,-1,-1,-1,-1],"loss_changes":[1.1817482E3,3.4238678E1,1.2041016E0,5.7853622E0,1.784433E1,0E0,0E0,7.2793245E0,0E0,2.2454514E1,3.0395348E1,0E0,0E0,2.079715E1,1.9056114E1,2.0718267E1,1.0642334E1,3.6851196E0,1.9503582E1,2.2413414E1,1.650033E1,1.2629132E1,1.7457289E1,0E0,9.897157E0,0E0,0E0,0E0,0E0,0E0,0E0,0E0,0E0,0E0,0E0,0E0,0E0,0E0,0E0],"parents":[2147483647,0,0,1,1,2,2,3,3,4,4,7,7,9,9,10,10,13,13,14,14,15,15,16,16,17,17,18,18,19,19,20,20,21,21,22,22,24,24],"right_children":[2,4,6,8,10,-1,-1,12,-1,14,16,-1,-1,18,20,22,24,26,28,30,32,34,36,-1,38,-1,-1,-1,-1,-1,-1,-1,-1,-1,-1,-1,-1,-1,-1],"split_conditions":[2E0,3E0,1.6947389E0,6.8E1,8.63E2,9.107738E-2,2.7275233E-2,5.12E4,-9.1929585E-2,-3.8152006E-1,2.3E1,-6.449301E-2,5.467121E-2,3E0,1E0,-3.6661267E-1,1.7E1,4.4E1,-3.5562658E-1,4E0,6E0,-1.2503968E0,-1.9947837E-1,-9.267685E-2,4E0,-9.323097E-2,-3.321309E-2,-1.8871881E-2,-7.171403E-2,5.4299623E-2,-3.4950614E-2,4.1581284E-2,-1.581348E-2,-6.1651945E-2,6.19922E-2,-1.6703822E-3,-7.514512E-2,2.5480934E-3,-8.208938E-2],"split_indices":[2,15,5,18,18,0,0,14,0,1,15,0,0,9,2,1,19,15,6,15,16,5,5,0,8,0,0,0,0,0,0,0,0,0,0,0,0,0,0],"split_type":[0,0,0,0,0,0,0,0,0,0,0,0,0,0,0,0,0,0,0,0,0,0,0,0,0,0,0,0,0,0,0,0,0,0,0,0,0,0,0],"sum_hessian":[1.00349805E3,7.401569E2,2.633411E2,2.9719866E1,7.104371E2,2.6155692E2,1.7841728E0,3.2812915E0,2.6438574E1,6.2101166E2,8.9425385E1,1.9977794E0,1.2835121E0,1.1290766E2,5.0810403E2,4.2163216E1,4.7262165E1,2.7255816E1,8.565185E1,2.460888E2,2.6201523E2,1.069598E1,3.1467237E1,3.441867E1,1.2843494E1,2.272547E1,4.5303464E0,6.1628098E1,2.4023746E1,6.385765E0,2.3970303E2,1.2237079E1,2.4977814E2,1.7482294E0,8.94775E0,1.57071495E1,1.5760088E1,7.59809E0,5.2454047E0],"tree_param":{"num_deleted":"0","num_feature":"20","num_nodes":"39","size_leaf_vector":"1"}},{"base_weights":[-6.380521E-4,-6.1695373E-1,1.7359474E0,-1.6155417E0,-5.7316893E-1,8.710887E-2,2.6411165E-2,-3.0695364E-1,-8.806581E-2,-5.13865E-1,-9.759715E-1,-6.2479563E-2,5.3204477E-2,-8.206339E-1,-4.027124E-1,-3.7247857E-1,-1.4968873E0,4.1570115E-1,-9.091277E-1,-2.375596E-1,-6.9470334E-1,7.286003E-1,-7.5740063E-1,-8.875781E-2,-6.8028563E-1,7.247796E-2,-1.682459E-2,-3.216251E-2,-6.990095E-2,-2.1808745E-2,3.133156E-3,2.8122498E-2,-3.8936537E-2,-5.980408E-2,5.9366144E-2,-1.591868E-3,-7.191341E-2,3.132258E-3,-7.976321E-2],"categories":[],"categories_nodes":[],"categories_segments":[],"categories_sizes":[],"default_left":[0,0,0,0,0,0,0,0,0,0,0,0,0,0,0,0,0,0,0,0,0,0,0,0,0,0,0,0,0,0,0,0,0,0,0,0,0,0,0],"id":2,"left_children":[1,3,5,7,9,-1,-1,11,-1,13,15,-1,-1,17,19,21,23,25,27,29,31,33,35,-1,37,-1,-1,-1,-1,-1,-1,-1,-1,-1,-1,-1,-1,-1,-1],"loss_changes":[1.073261E3,3.143396E1,1.0560303E0,5.284828E0,1.6472519E1,0E0,0E0,6.8508077E0,0E0,2.086139E1,2.7760422E1,0E0,0E0,1.8357224E1,2.1929016E1,1.8803196E1,9.70327E0,9.557665E0,1.90755E1,1.7567842E1,1.7867958E1,1.1718555E1,1.5959505E1,0E0,9.497625E0,0E0,0E0,0E0,0E0,0E0,0E0,0E0,0E0,0E0,0E0,0E0,0E0,0E0,0E0],"parents":[2147483647,0,0,1,1,2,2,3,3,4,4,7,7,9,9,10,10,13,13,14,14,15,15,16,16,17,17,18,18,19,19,20,20,21,21,22,22,24,24],"right_children":[2,4,6,8,10,-1,-1,12,-1,14,16,-1,-1,18,20,22,24,26,28,30,32,34,36,-1,38,-1,-1,-1,-1,-1,-1,-1,-1,-1,-1,-1,-1,-1,-1],"split_conditions":[2E0,3E0,1.6947389E0,6.8E1,8.63E2,8.710887E-2,2.6411165E-2,5.12E4,-8.806581E-2,-3.4567285E-1,2.3E1,-6.2479563E-2,5.3204477E-2,-1.3929589E0,-8.500893E-2,-3.6661267E-1,1.7E1,1.0509E4,1.1501E4,3.1E1,5E0,-1.2503968E0,-1.9947837E-1,-8.875781E-2,5.9E1,7.247796E-2,-1.682459E-2,-3.216251E-2,-6.990095E-2,-2.1808745E-2,3.133156E-3,2.8122498E-2,-3.8936537E-2,-5.980408E-2,5.9366144E-2,-1.591868E-3,-7.191341E-2,3.132258E-3,-7.976321E-2],"split_indices":[2,15,5,18,18,0,0,14,0,1,15,0,0,6,1,1,19,14,14,15,15,5,5,0,0,0,0,0,0,0,0,0,0,0,0,0,0,0,0],"split_type":[0,0,0,0,0,0,0,0,0,0,0,0,0,0,0,0,0,0,0,0,0,0,0,0,0,0,0,0,0,0,0,0,0,0,0,0,0,0,0],"sum_hessian":[1.00078E3,7.391129E2,2.6166708E2,2.9538504E1,7.095744E2,2.5988394E2,1.7831559E0,3.2720084E0,2.6266497E1,6.204956E2,8.90788E1,1.991423E0,1.2805855E0,1.6333264E2,4.5716296E2,4.206295E1,4.701585E1,1.0663057E1,1.5266959E2,2.931616E2,1.6400137E2,1.066438E1,3.1398567E1,3.4190952E1,1.2824895E1,4.100281E0,6.5627766E0,1.0038965E2,5.227994E1,1.7616504E2,1.1699656E2,9.9182625E0,1.5408311E2,1.7431505E0,8.921229E0,1.5707116E1,1.5691452E1,7.591994E0,5.232901E0],"tree_param":{"num_deleted":"0","num_feature":"20","num_nodes":"39","size_leaf_vector":"1"}},{"base_weights":[-8.46627E-4,-5.87916E-1,1.6663723E0,-1.5525956E0,-5.459385E-1,8.3617814E-2,2.5580287E-2,-2.9483485E-1,-8.4670514E-2,-4.8885474E-1,-9.356175E-1,-6.0608532E-2,5.1819343E-2,-8.611031E-1,-4.0489557E-1,-3.5692486E-1,-1.437242E0,-1.5837228E0,-6.1640763E-1,-5.946646E-1,-2.252715E-1,6.9515103E-1,-7.2429025E-1,-8.532011E-2,-6.5330243E-1,-8.733537E-2,-3.0041168E-2,4.244515E-3,-4.560632E-2,-3.373105E-2,2.4469111E-2,-1.4048407E-2,4.0266145E-2,-5.8078565E-2,5.693964E-2,-1.5170368E-3,-6.898372E-2,3.503025E-3,-7.744854E-2],"categories":[],"categories_nodes":[],"categories_segments":[],"categories_sizes":[],"default_left":[0,0,0,0,0,0,0,0,0,0,0,0,0,0,0,0,0,0,0,0,0,0,0,0,0,0,0,0,0,0,0,0,0,0,0,0,0,0,0],"id":3,"left_children":[1,3,5,7,9,-1,-1,11,-1,13,15,-1,-1,17,19,21,23,25,27,29,31,33,35,-1,37,-1,-1,-1,-1,-1,-1,-1,-1,-1,-1,-1,-1,-1,-1],"loss_changes":[9.7749664E2,2.9062271E1,9.4158936E-1,4.8596954E0,1.5321732E1,0E0,0E0,6.455178E0,0E0,1.9053986E1,2.5479637E1,0E0,0E0,1.9069176E1,1.7197517E1,1.708695E1,8.936256E0,3.4424667E0,1.7980114E1,2.1707321E1,1.5312038E1,1.0890341E1,1.4644697E1,0E0,9.046267E0,0E0,0E0,0E0,0E0,0E0,0E0,0E0,0E0,0E0,0E0,0E0,0E0,0E0,0E0],"parents":[2147483647,0,0,1,1,2,2,3,3,4,4,7,7,9,9,10,10,13,13,14,14,15,15,16,16,17,17,18,18,19,19,20,20,21,21,22,22,24,24],"right_children":[2,4,6,8,10,-1,-1,12,-1,14,16,-1,-1,18,20,22,24,26,28,30,32,34,36,-1,38,-1,-1,-1,-1,-1,-1,-1,-1,-1,-1,-1,-1,-1,-1],"split_conditions":[2E0,3E0,1.6947389E0,6.8E1,8.63E2,8.3617814E-2,2.5580287E-2,5.12E4,-8.4670514E-2,-3.8152006E-1,2.3E1,-6.0608532E-2,5.1819343E-2,3E0,1E0,-3.6661267E-1,1.7E1,4.4E1,1E0,2E1,4.8E1,-1.2503968E0,-1.9947837E-1,-8.532011E-2,4E0,-8.733537E-2,-3.0041168E-2,4.244515E-3,-4.560632E-2,-3.373105E-2,2.4469111E-2,-1.4048407E-2,4.0266145E-2,-5.8078565E-2,5.693964E-2,-1.5170368E-3,-6.898372E-2,3.503025E-3,-7.744854E-2],"split_indices":[2,15,5,18,18,0,0,14,0,1,15,0,0,9,2,1,19,15,7,19,15,5,5,0,8,0,0,0,0,0,0,0,0,0,0,0,0,0,0],"split_type":[0,0,0,0,0,0,0,0,0,0,0,0,0,0,0,0,0,0,0,0,0,0,0,0,0,0,0,0,0,0,0,0,0,0,0,0,0,0,0],"sum_hessian":[9.966948E2,7.3761096E2,2.5908386E2,2.9257677E1,7.0835333E2,2.573023E2,1.7815405E0,3.257286E0,2.6000391E1,6.19812E2,8.8541275E1,1.9813685E0,1.2759174E0,1.1236499E2,5.0744705E2,4.190716E1,4.6634117E1,2.703997E1,8.532502E1,2.4563173E2,2.618153E2,1.0615061E1,3.1292099E1,3.3839027E1,1.2795088E1,2.2527378E1,4.512592E0,2.5519167E1,5.980585E1,2.2911081E2,1.6520924E1,2.4908151E2,1.2733794E1,1.7350968E0,8.879964E0,1.5707063E1,1.5585037E1,7.588342E0,5.206746E0],"tree_param":{"num_deleted":"0","num_feature":"20","num_nodes":"39","size_leaf_vector":"1"}},{"base_weights":[-1.0936335E-3,-5.607767E-1,1.6046401E0,-1.4965832E0,-5.2045584E-1,8.0521815E-2,2.478076E-2,-2.8351682E-1,-8.166472E-2,-4.6540174E-1,-8.9871156E-1,-5.8864523E-2,5.050884E-2,-7.4992204E-1,-3.6270872E-1,-3.4244937E-1,-1.3835977E0,4.2126393E-1,-8.3429736E-1,-2.0642042E-1,-6.3948286E-1,6.6409034E-1,-6.933762E-1,-8.228189E-2,-6.279659E-1,4.1641746E-2,-6.084031E-2,-2.906243E-2,-6.5101705E-2,-1.9705473E-2,3.8428379E-3,-3.9387167E-2,2.898064E-3,-5.6462992E-2,5.4686572E-2,-1.4457416E-3,-6.631005E-2,2.7668733E-2,-5.6845047E-2],"categories":[],"categories_nodes":[],"categories_segments":[],"categories_sizes":[],"default_left":[0,0,0,0,0,0,0,0,0,0,0,0,0,0,0,0,0,0,0,0,0,0,0,0,0,0,0,0,0,0,0,0,0,0,0,0,0,0,0],"id":4,"left_children":[1,3,5,7,9,-1,-1,11,-1,13,15,-1,-1,17,19,21,23,25,27,29,31,33,35,-1,37,-1,-1,-1,-1,-1,-1,-1,-1,-1,-1,-1,-1,-1,-1],"loss_changes":[8.926943E2,2.7014008E1,8.5217285E-1,4.494316E0,1.4318909E1,0E0,0E0,6.089187E0,0E0,1.7838745E1,2.3488632E1,0E0,0E0,1.6503685E1,1.965318E1,1.5544438E1,8.2999115E0,8.866737E0,1.7329079E1,1.5651038E1,1.7065018E1,1.0134691E1,1.34818125E1,0E0,8.898539E0,0E0,0E0,0E0,0E0,0E0,0E0,0E0,0E0,0E0,0E0,0E0,0E0,0E0,0E0],"parents":[2147483647,0,0,1,1,2,2,3,3,4,4,7,7,9,9,10,10,13,13,14,14,15,15,16,16,17,17,18,18,19,19,20,20,21,21,22,22,24,24],"right_children":[2,4,6,8,10,-1,-1,12,-1,14,16,-1,-1,18,20,22,24,26,28,30,32,34,36,-1,38,-1,-1,-1,-1,-1,-1,-1,-1,-1,-1,-1,-1,-1,-1],"split_conditions":[2E0,3E0,1.6947389E0,6.8E1,8.63E2,8.0521815E-2,2.478076E-2,5.12E4,-8.166472E-2,-3.4567285E-1,2.3E1,-5.8864523E-2,5.050884E-2,-1.3929589E0,-8.500893E-2,-3.6661267E-1,1.7E1,7E0,1.1501E4,3.1E1,1.4959084E0,-1.2503968E0,-1.9947837E-1,-8.228189E-2,3.2E1,4.1641746E-2,-6.084031E-2,-2.906243E-2,-6.5101705E-2,-1.9705473E-2,3.8428379E-3,-3.9387167E-2,2.898064E-3,-5.6462992E-2,5.4686572E-2,-1.4457416E-3,-6.631005E-2,2.7668733E-2,-5.6845047E-2],"split_indices":[2,15,5,18,18,0,0,14,0,1,15,0,0,6,1,1,19,9,14,15,5,5,5,0,0,0,0,0,0,0,0,0,0,0,0,0,0,0,0],"split_type":[0,0,0,0,0,0,0,0,0,0,0,0,0,0,0,0,0,0,0,0,0,0,0,0,0,0,0,0,0,0,0,0,0,0,0,0,0,0,0],"sum_hessian":[9.913138E2,7.35577E2,2.5573671E2,2.8892595E1,7.0668445E2,2.5395732E2,1.7793868E0,3.2376945E0,2.5654902E1,6.188439E2,8.784059E1,1.968024E0,1.2696705E0,1.6245236E2,4.563915E2,4.1703976E1,4.6136616E1,1.0648691E1,1.5180368E2,2.927997E2,1.635918E2,1.0550448E1,3.1153528E1,3.3382362E1,1.2754253E1,8.903284E0,1.7454065E0,9.9964745E1,5.1838932E1,1.758781E2,1.169216E2,1.3480574E2,2.8786049E1,1.7243824E0,8.826066E0,1.5706993E1,1.5446535E1,3.8139613E0,8.940292E0],"tree_param":{"num_deleted":"0","num_feature":"20","num_nodes":"39","size_leaf_vector":"1"}},{"base_weights":[-1.292113E-3,-5.3514904E-1,1.5494688E0,-1.4464135E0,-4.9635592E-1,7.775625E-2,2.4010865E-2,-2.7291855E-1,-7.8986146E-2,-4.4322386E-1,-8.64296E-1,-5.7234157E-2,4.926675E-2,2.1449278E-1,-4.846578E-1,-3.2892224E-1,-1.3341777E0,5.165716E-1,-7.738393E-2,-1.0704442E0,-4.2379698E-1,6.3512313E-1,-6.644024E-1,-7.957878E-2,-6.011067E-1,5.0330516E-2,-2.1684842E-2,-2.371591E-2,-8.121468E-2,-3.877707E-2,-1.5517542E-2,-5.494647E-2,5.2585166E-2,-5.9682805E-2,4.0329834E-3,4.6548494E-3,-7.357244E-2],"categories":[],"categories_nodes":[],"categories_segments":[],"categories_sizes":[],"default_left":[0,0,0,0,0,0,0,0,0,0,0,0,0,0,0,0,0,0,0,0,0,0,0,0,0,0,0,0,0,0,0,0,0,0,0,0,0],"id":5,"left_children":[1,3,5,7,9,-1,-1,11,-1,13,15,-1,-1,17,19,21,23,25,-1,27,29,31,33,-1,35,-1,-1,-1,-1,-1,-1,-1,-1,-1,-1,-1,-1],"loss_changes":[8.170838E2,2.5236603E1,7.817383E-1,4.177006E0,1.3413803E1,0E0,0E0,5.7499833E0,0E0,1.696579E1,2.1698654E1,0E0,0E0,2.068779E1,2.0309082E1,1.4154512E1,7.824852E0,1.5637933E1,0E0,1.7110214E1,2.0877495E1,9.443322E0,1.2709967E1,0E0,8.415243E0,0E0,0E0,0E0,0E0,0E0,0E0,0E0,0E0,0E0,0E0,0E0,0E0],"parents":[2147483647,0,0,1,1,2,2,3,3,4,4,7,7,9,9,10,10,13,13,14,14,15,15,16,16,17,17,19,19,20,20,21,21,22,22,24,24],"right_children":[2,4,6,8,10,-1,-1,12,-1,14,16,-1,-1,18,20,22,24,26,-1,28,30,32,34,-1,36,-1,-1,-1,-1,-1,-1,-1,-1,-1,-1,-1,-1],"split_conditions":[2E0,3E0,1.6947389E0,6.8E1,8.63E2,7.775625E-2,2.4010865E-2,5.12E4,-7.8986146E-2,5E0,2.3E1,-5.7234157E-2,4.926675E-2,6E0,1E1,-3.6661267E-1,1.7E1,5.3E1,-7.738393E-2,-2.9627985E-1,-3.507677E-1,-1.2503968E0,9.62E2,-7.957878E-2,5.9E1,5.0330516E-2,-2.1684842E-2,-2.371591E-2,-8.121468E-2,-3.877707E-2,-1.5517542E-2,-5.494647E-2,5.2585166E-2,-5.9682805E-2,4.0329834E-3,4.6548494E-3,-7.357244E-2],"split_indices":[2,15,5,18,18,0,0,14,0,15,15,0,0,8,15,1,19,0,0,1,1,5,18,0,0,0,0,0,0,0,0,0,0,0,0,0,0],"split_type":[0,0,0,0,0,0,0,0,0,0,0,0,0,0,0,0,0,0,0,0,0,0,0,0,0,0,0,0,0,0,0,0,0,0,0,0,0],"sum_hessian":[9.8495233E2,7.331997E2,2.5175261E2,2.8456673E1,7.0474304E2,2.4997586E2,1.7767501E0,3.2137685E0,2.5242903E1,6.17743E2,8.7000015E1,1.9517704E0,1.2619982E0,3.636193E1,5.813811E2,4.1460625E1,4.5539387E1,3.1644203E1,4.7177267E0,5.3156864E1,5.282242E2,1.0472726E1,3.09879E1,3.283808E1,1.2701304E1,2.0838713E1,1.0805491E1,2.6495403E1,2.666146E1,1.2739491E2,4.0082928E2,1.7113013E0,8.761425E0,1.776586E1,1.3222039E1,7.5624022E0,5.138902E0],"tree_param":{"num_deleted":"0","num_feature":"20","num_nodes":"37","size_leaf_vector":"1"}},{"base_weights":[-1.5397377E-3,-5.1089615E-1,1.499836E0,-1.4012101E0,-4.7353092E-1,1.5053921E0,2.3269033E-2,-2.6296964E-1,-7.658499E-2,-4.2219546E-1,-8.320086E-1,2.656631E-2,1.5089355E0,-5.5705823E-2,4.8087493E-2,-7.5846416E-1,-3.470438E-1,-3.153662E-1,-1.2899183E0,7.562604E-2,2.656631E-2,-4.8107183E-1,-1.3659215E0,7.267341E-1,-3.7775007E-1,6.080005E-1,-6.352202E-1,-7.715949E-2,-5.786737E-1,1.1738757E-2,-4.022611E-2,-7.505617E-2,3.710092E-2,5.3782802E-2,-5.7953697E-2,-3.0089885E-2,-1.1806511E-2,-5.3519458E-2,5.0617117E-2,6.6020366E-5,-6.2642656E-2,5.413856E-3,-7.236799E-2],"categories":[],"categories_nodes":[],"categories_segments":[],"categories_sizes":[],"default_left":[0,0,0,0,0,0,0,0,0,0,0,0,0,0,0,0,0,0,0,0,0,0,0,0,0,0,0,0,0,0,0,0,0,0,0,0,0,0,0,0,0,0,0],"id":6,"left_children":[1,3,5,7,9,11,-1,13,-1,15,17,-1,19,-1,-1,21,23,25,27,-1,-1,29,31,33,35,37,39,-1,41,-1,-1,-1,-1,-1,-1,-1,-1,-1,-1,-1,-1,-1,-1],"loss_changes":[7.4941077E2,2.3678345E1,7.261963E-1,3.898857E0,1.2599655E1,4.901123E-2,0E0,5.4350595E0,0E0,1.5344955E1,2.0205086E1,0E0,5.5114746E-2,0E0,0E0,1.8211128E1,1.6979752E1,1.2867746E1,7.3689804E0,0E0,0E0,1.8345272E1,1.0963203E1,1.0740202E1,1.5507751E1,8.80917E0,1.2534185E1,0E0,8.298431E0,0E0,0E0,0E0,0E0,0E0,0E0,0E0,0E0,0E0,0E0,0E0,0E0,0E0,0E0],"parents":[2147483647,0,0,1,1,2,2,3,3,4,4,5,5,7,7,9,9,10,10,12,12,15,15,16,16,17,17,18,18,21,21,22,22,23,23,24,24,25,25,26,26,28,28],"right_children":[2,4,6,8,10,12,-1,14,-1,16,18,-1,20,-1,-1,22,24,26,28,-1,-1,30,32,34,36,38,40,-1,42,-1,-1,-1,-1,-1,-1,-1,-1,-1,-1,-1,-1,-1,-1],"split_conditions":[2E0,3E0,1.6947389E0,6.8E1,8.63E2,3E0,2.3269033E-2,5.12E4,-7.658499E-2,-3.8152006E-1,2.3E1,2.656631E-2,2.23E2,-5.5705823E-2,4.8087493E-2,-3.5562658E-1,-3.7411058E-1,-3.6661267E-1,1.7E1,7.562604E-2,2.656631E-2,1E0,8.16E2,4.1E1,-2.7327234E-1,-1.2503968E0,-1.9947837E-1,-7.715949E-2,4E0,1.1738757E-2,-4.022611E-2,-7.505617E-2,3.710092E-2,5.3782802E-2,-5.7953697E-2,-3.0089885E-2,-1.1806511E-2,-5.3519458E-2,5.0617117E-2,6.6020366E-5,-6.2642656E-2,5.413856E-3,-7.236799E-2],"split_indices":[2,15,5,18,18,16,0,14,0,1,15,0,16,0,0,6,1,1,19,0,0,7,18,15,6,5,5,0,8,0,0,0,0,0,0,0,0,0,0,0,0,0,0],"split_type":[0,0,0,0,0,0,0,0,0,0,0,0,0,0,0,0,0,0,0,0,0,0,0,0,0,0,0,0,0,0,0,0,0,0,0,0,0,0,0,0,0,0,0],"sum_hessian":[9.7795905E2,7.307161E2,2.472429E2,2.7961744E1,7.027544E2,2.4546922E2,1.7736816E0,3.1860049E0,2.477574E1,6.166284E2,8.612597E1,1.4368545E0,2.4403236E2,1.9329594E0,1.2530454E0,1.1097491E2,5.056535E2,4.12612E1,4.4864765E1,2.425955E2,1.4368545E0,7.741547E1,3.3559437E1,1.342772E1,4.922258E2,1.0383848E1,3.0877354E1,3.2221214E1,1.2643553E1,2.4178581E1,5.323689E1,3.1807217E1,1.7522222E0,1.1693696E1,1.7340235E0,1.8937634E2,3.0284946E2,1.6961268E0,8.687721E0,1.5697334E1,1.5180019E1,7.5491176E0,5.094435E0],"tree_param":{"num_deleted":"0","num_feature":"20","num_nodes":"43","size_leaf_vector":"1"}},{"base_weights":[-1.6335069E-3,-4.8796365E-1,1.4550537E0,-1.3602608E0,-4.5192465E-1,1.460544E0,2.2553826E-2,-2.5360808E-1,-7.4421E-2,-4.0218744E-1,-8.0272686E-1,2.5890235E-2,1.4639902E0,-5.4269325E-2,4.696603E-2,2.172003E-1,-4.413385E-1,-3.033838E-1,-1.2492994E0,7.337388E-2,2.5890235E-2,5.0454456E-1,-7.377269E-2,-6.3853234E-1,-2.6998818E-1,1.7091975E-1,-8.890522E-1,-7.498253E-2,-5.5737346E-1,-6.889468E-2,3.6142465E-2,3.8306843E-2,-3.355604E-2,2.035375E-3,-2.3592876E-2,-7.7823535E-2,3.2248143E-2,9.702653E-3,-7.7228844E-2,4.90758E-3,-7.206951E-2],"categories":[],"categories_nodes":[],"categories_segments":[],"categories_sizes":[],"default_left":[0,0,0,0,0,0,0,0,0,0,0,0,0,0,0,0,0,0,0,0,0,0,0,0,0,0,0,0,0,0,0,0,0,0,0,0,0,0,0,0,0],"id":7,"left_children":[1,3,5,7,9,11,-1,13,-1,15,17,-1,19,-1,-1,21,23,25,27,-1,-1,29,-1,31,33,35,37,-1,39,-1,-1,-1,-1,-1,-1,-1,-1,-1,-1,-1,-1],"loss_changes":[6.886807E2,2.2296356E1,6.824341E-1,3.6530151E0,1.191481E1,2.6672363E-2,0E0,5.142201E0,0E0,1.5040749E1,1.8818531E1,0E0,3.253174E-2,0E0,0E0,1.889087E1,1.9424759E1,1.1809057E1,6.981041E0,0E0,0E0,1.4409374E1,0E0,1.28244095E1,1.9591516E1,2.0677324E1,1.3746487E1,0E0,8.011536E0,0E0,0E0,0E0,0E0,0E0,0E0,0E0,0E0,0E0,0E0,0E0,0E0],"parents":[2147483647,0,0,1,1,2,2,3,3,4,4,5,5,7,7,9,9,10,10,12,12,15,15,16,16,17,17,18,18,21,21,23,23,24,24,25,25,26,26,28,28],"right_children":[2,4,6,8,10,12,-1,14,-1,16,18,-1,20,-1,-1,22,24,26,28,-1,-1,30,-1,32,34,36,38,-1,40,-1,-1,-1,-1,-1,-1,-1,-1,-1,-1,-1,-1],"split_conditions":[2E0,3E0,1.6947389E0,6.8E1,8.63E2,3E0,2.2553826E-2,5.12E4,-7.4421E-2,5E0,2.3E1,2.5890235E-2,2.23E2,-5.4269325E-2,4.696603E-2,6E0,2.6E1,-1.6437092E-1,1.7E1,7.337388E-2,2.5890235E-2,-1.0230492E0,-7.377269E-2,1.9E1,3.4E1,6.5E1,7.5E1,-7.498253E-2,3E0,-6.889468E-2,3.6142465E-2,3.8306843E-2,-3.355604E-2,2.035375E-3,-2.3592876E-2,-7.7823535E-2,3.2248143E-2,9.702653E-3,-7.7228844E-2,4.90758E-3,-7.206951E-2],"split_indices":[2,15,5,18,18,16,0,14,0,15,15,0,16,0,0,8,15,5,19,0,0,6,0,0,15,16,16,0,13,0,0,0,0,0,0,0,0,0,0,0,0],"split_type":[0,0,0,0,0,0,0,0,0,0,0,0,0,0,0,0,0,0,0,0,0,0,0,0,0,0,0,0,0,0,0,0,0,0,0,0,0,0,0,0,0],"sum_hessian":[9.70119E2,7.2780035E2,2.423187E2,2.7418236E1,7.0038214E2,2.4054846E2,1.7702289E0,3.154865E0,2.4263372E1,6.1529175E2,8.509039E1,1.4270211E0,2.3912144E2,1.9119166E0,1.2429484E0,3.6309605E1,5.789821E2,4.0964535E1,4.412586E1,2.3769443E2,1.4270211E0,3.1640284E1,4.669321E0,2.6792337E2,3.1105875E2,2.3025497E1,1.7939035E1,3.154497E1,1.2580891E1,2.736001E0,2.8904282E1,5.5645323E0,2.6235886E2,1.2282225E2,1.8823648E2,4.466477E0,1.8559021E1,7.029071E0,1.09099655E1,7.734498E0,4.8463926E0],"tree_param":{"num_deleted":"0","num_feature":"20","num_nodes":"41","size_leaf_vector":"1"}},{"base_weights":[-1.7741785E-3,-4.661215E-1,1.4143082E0,-1.3229812E0,-4.3133932E-1,1.4197618E0,2.1863906E-2,-2.4477965E-1,-7.246123E-2,-3.8309175E-1,-7.750308E-1,2.5235355E-2,1.4231337E0,-5.291576E-2,4.5897838E-2,-6.4294845E-1,-2.9028326E-1,-2.9265144E-1,-1.2116036E0,7.1327336E-2,2.5235355E-2,4.6052292E-1,-7.238547E-1,-1.3921888E-1,-5.5884993E-1,-9.02632E-1,1.4775066E-1,-7.30141E-2,-5.368715E-1,7.144364E-2,-1.2849303E-2,-2.3978932E-2,-5.905181E-2,-9.609876E-3,3.885343E-2,-4.407165E-2,-1.2837133E-2,-8.025099E-2,-2.4281123E-3,-2.519092E-2,5.7139933E-2,6.1292597E-3,-6.920276E-2],"categories":[],"categories_nodes":[],"categories_segments":[],"categories_sizes":[],"default_left":[0,0,0,0,0,0,0,0,0,0,0,0,0,0,0,0,0,0,0,0,0,0,0,0,0,0,0,0,0,0,0,0,0,0,0,0,0,0,0,0,0,0,0],"id":8,"left_children":[1,3,5,7,9,11,-1,13,-1,15,17,-1,19,-1,-1,21,23,25,27,-1,-1,29,31,33,35,37,39,-1,41,-1,-1,-1,-1,-1,-1,-1,-1,-1,-1,-1,-1,-1,-1],"loss_changes":[6.338913E2,2.106546E1,6.475525E-1,3.4340858E0,1.1296188E1,1.0803223E-2,0E0,4.869441E0,0E0,1.4646225E1,1.756372E1,0E0,1.6174316E-2,0E0,0E0,1.4710007E1,1.8382252E1,1.1346322E1,6.656639E0,0E0,0E0,8.434882E0,1.6232437E1,1.4350299E1,1.5704422E1,1.0504932E1,1.6848392E1,0E0,7.7250166E0,0E0,0E0,0E0,0E0,0E0,0E0,0E0,0E0,0E0,0E0,0E0,0E0,0E0,0E0],"parents":[2147483647,0,0,1,1,2,2,3,3,4,4,5,5,7,7,9,9,10,10,12,12,15,15,16,16,17,17,18,18,21,21,22,22,23,23,24,24,25,25,26,26,28,28],"right_children":[2,4,6,8,10,12,-1,14,-1,16,18,-1,20,-1,-1,22,24,26,28,-1,-1,30,32,34,36,38,40,-1,42,-1,-1,-1,-1,-1,-1,-1,-1,-1,-1,-1,-1,-1,-1],"split_conditions":[2E0,3E0,1.6947389E0,6.8E1,8.63E2,3E0,2.1863906E-2,5.12E4,-7.246123E-2,-3.4567285E-1,2.3E1,2.5235355E-2,2.23E2,-5.291576E-2,4.5897838E-2,-1.3929589E0,-8.500893E-2,1E0,1.7E1,7.1327336E-2,2.5235355E-2,1.0509E4,1.1501E4,8.35E2,4E0,5.9E1,9.73E2,-7.30141E-2,5.9E1,7.144364E-2,-1.2849303E-2,-2.3978932E-2,-5.905181E-2,-9.609876E-3,3.885343E-2,-4.407165E-2,-1.2837133E-2,-8.025099E-2,-2.4281123E-3,-2.519092E-2,5.7139933E-2,6.1292597E-3,-6.920276E-2],"split_indices":[2,15,5,18,18,16,0,14,0,1,15,0,16,0,0,6,1,10,19,0,0,14,14,18,8,0,18,0,0,0,0,0,0,0,0,0,0,0,0,0,0,0,0],"split_type":[0,0,0,0,0,0,0,0,0,0,0,0,0,0,0,0,0,0,0,0,0,0,0,0,0,0,0,0,0,0,0,0,0,0,0,0,0,0,0,0,0,0,0],"sum_hessian":[9.620114E2,7.249606E2,2.3705084E2,2.6835323E1,6.9812524E2,2.3528441E2,1.7664361E0,3.1207747E0,2.3714548E1,6.140405E2,8.40847E1,1.4170552E0,2.3386736E2,1.8889403E0,1.2318344E0,1.6003288E2,4.5400766E2,4.0740227E1,4.3344475E1,2.324503E2,1.4170552E0,1.0611524E1,1.4942136E2,2.915397E2,1.6246796E2,1.6641415E1,2.4098814E1,3.082092E1,1.2523553E1,4.0943522E0,6.517171E0,9.8722206E1,5.0699146E1,2.7635162E2,1.5188076E1,7.764396E1,8.4824E1,8.649114E0,7.9923005E0,1.48612E1,9.237614E0,7.522928E0,5.000624E0],"tree_param":{"num_deleted":"0","num_feature":"20","num_nodes":"43","size_leaf_vector":"1"}},{"base_weights":[-1.7692514E-3,-4.4528103E-1,1.3770444E0,-1.2888862E0,-4.1167748E-1,6.912431E-2,2.1198025E-2,-2.3643652E-1,-7.067843E-2,-3.6496872E-1,-7.475351E-1,-5.1637262E-2,4.4878837E-2,-6.1438084E-1,-2.7624547E-1,-2.803371E-1,-1.1769619E0,-8.1976485E-1,-1.8339634E-1,-1.3223848E-1,-5.328777E-1,5.8214587E-1,-5.8008635E-1,-7.122626E-2,-5.1773256E-1,2.3697803E-2,-4.8531458E-2,-7.375983E-2,1.1180794E-3,-1.54987695E-2,6.723126E-3,-3.3729058E-2,6.4056027E-3,-6.0386296E-2,4.5921486E-2,-7.79006E-2,-1.09206615E-2,6.677996E-3,-6.81765E-2],"categories":[],"categories_nodes":[],"categories_segments":[],"categories_sizes":[],"default_left":[0,0,0,0,0,0,0,0,0,0,0,0,0,0,0,0,0,0,0,0,0,0,0,0,0,0,0,0,0,0,0,0,0,0,0,0,0,0,0],"id":9,"left_children":[1,3,5,7,9,-1,-1,11,-1,13,15,-1,-1,17,19,21,23,25,27,29,31,33,35,-1,37,-1,-1,-1,-1,-1,-1,-1,-1,-1,-1,-1,-1,-1,-1],"loss_changes":[5.8422406E2,1.996077E1,6.19812E-1,3.2377853E0,1.0655479E1,0E0,0E0,4.615035E0,0E0,1.3406799E1,1.6542675E1,0E0,0E0,1.4027138E1,1.6721268E1,1.1090141E1,6.3630943E0,2.1575256E1,1.4115197E1,1.3900967E1,1.5352493E1,7.8660526E0,1.075324E1,0E0,7.5907397E0,0E0,0E0,0E0,0E0,0E0,0E0,0E0,0E0,0E0,0E0,0E0,0E0,0E0,0E0],"parents":[2147483647,0,0,1,1,2,2,3,3,4,4,7,7,9,9,10,10,13,13,14,14,15,15,16,16,17,17,18,18,19,19,20,20,21,21,22,22,24,24],"right_children":[2,4,6,8,10,-1,-1,12,-1,14,16,-1,-1,18,20,22,24,26,28,30,32,34,36,-1,38,-1,-1,-1,-1,-1,-1,-1,-1,-1,-1,-1,-1,-1,-1],"split_conditions":[2E0,3E0,1.6947389E0,6.8E1,8.63E2,6.912431E-2,2.1198025E-2,5.12E4,-7.067843E-2,-3.4567285E-1,2.3E1,-5.1637262E-2,4.4878837E-2,6.6E1,-8.500893E-2,-3.6661267E-1,1.7E1,6E0,1.41E2,3.1E1,1.4959084E0,2E0,7.2E1,-7.122626E-2,4E0,2.3697803E-2,-4.8531458E-2,-7.375983E-2,1.1180794E-3,-1.54987695E-2,6.723126E-3,-3.3729058E-2,6.4056027E-3,-6.0386296E-2,4.5921486E-2,-7.79006E-2,-1.09206615E-2,6.677996E-3,-6.81765E-2],"split_indices":[2,15,5,18,18,0,0,14,0,1,15,0,0,0,1,1,19,15,18,15,5,13,16,0,8,0,0,0,0,0,0,0,0,0,0,0,0,0,0],"split_type":[0,0,0,0,0,0,0,0,0,0,0,0,0,0,0,0,0,0,0,0,0,0,0,0,0,0,0,0,0,0,0,0,0,0,0,0,0,0,0],"sum_hessian":[9.5336096E2,7.218473E2,2.3151369E2,2.6221075E1,6.9562616E2,2.2975134E2,1.7623434E0,3.084127E0,2.313695E1,6.1252686E2,8.309932E1,1.8643048E0,1.219822E0,1.5916618E2,4.533607E2,4.0590935E1,4.2508385E1,1.0718535E2,5.1980843E1,2.9137393E2,1.6198674E2,1.0225759E1,3.0365175E1,3.0059217E1,1.2449165E1,1.0970174E1,9.621517E1,6.2942677E0,4.5686577E1,1.7475208E2,1.16621864E2,1.3337349E2,2.8613258E1,1.207492E0,9.018267E0,7.3051195E0,2.3060057E1,7.5090413E0,4.9401245E0],"tree_param":{"num_deleted":"0","num_feature":"20","num_nodes":"39","size_leaf_vector":"1"}},{"base_weights":[-1.958498E-3,-4.2568862E-1,1.3426402E0,-1.2575697E0,-3.932106E-1,1.3480914E0,2.055505E-2,-2.2853634E-1,-6.904989E-2,-3.4789607E-1,-7.2236586E-1,2.2879226E-2,1.3515314E0,-5.042691E-2,4.3905318E-2,2.28502E-1,-3.8455728E-1,-2.7002612E-1,-1.1447108E0,6.775071E-2,2.2879226E-2,5.0339735E-1,-7.060163E-2,-9.3918097E-1,-3.2744914E-1,1.7609133E-1,-8.2816607E-1,-6.959579E-2,-4.995071E-1,4.045351E-2,-3.983171E-2,-1.7492501E-2,-7.4528836E-2,-3.1919785E-2,-1.1445845E-2,-7.1322195E-2,3.0532375E-2,1.0826203E-2,-7.358859E-2,-6.843101E-2,6.547492E-3],"categories":[],"categories_nodes":[],"categories_segments":[],"categories_sizes":[],"default_left":[0,0,0,0,0,0,0,0,0,0,0,0,0,0,0,0,0,0,0,0,0,0,0,0,0,0,0,0,0,0,0,0,0,0,0,0,0,0,0,0,0],"id":10,"left_children":[1,3,5,7,9,11,-1,13,-1,15,17,-1,19,-1,-1,21,23,25,27,-1,-1,29,-1,31,33,35,37,-1,39,-1,-1,-1,-1,-1,-1,-1,-1,-1,-1,-1,-1],"loss_changes":[5.391695E2,1.8946655E1,5.9729004E-1,3.0606842E0,1.0099808E1,7.086182E-2,0E0,4.377424E0,0E0,1.3018921E1,1.5557007E1,0E0,7.620239E-2,0E0,0E0,1.7496647E1,1.7927322E1,1.0456663E1,6.105732E0,0E0,0E0,1.3605825E1,0E0,1.6769455E1,1.5893059E1,1.7472359E1,1.280495E1,0E0,7.5059385E0,0E0,0E0,0E0,0E0,0E0,0E0,0E0,0E0,0E0,0E0,0E0,0E0],"parents":[2147483647,0,0,1,1,2,2,3,3,4,4,5,5,7,7,9,9,10,10,12,12,15,15,16,16,17,17,18,18,21,21,23,23,24,24,25,25,26,26,28,28],"right_children":[2,4,6,8,10,12,-1,14,-1,16,18,-1,20,-1,-1,22,24,26,28,-1,-1,30,-1,32,34,36,38,-1,40,-1,-1,-1,-1,-1,-1,-1,-1,-1,-1,-1,-1],"split_conditions":[2E0,3E0,1.6947389E0,6.8E1,8.63E2,3E0,2.055505E-2,5.12E4,-6.904989E-2,5E0,2.3E1,2.2879226E-2,2.23E2,-5.042691E-2,4.3905318E-2,6E0,1E1,-1.6437092E-1,1.7E1,6.775071E-2,2.2879226E-2,5.1E4,-7.060163E-2,-2.9627985E-1,-3.507677E-1,6.5E1,7.5E1,-6.959579E-2,1E0,4.045351E-2,-3.983171E-2,-1.7492501E-2,-7.4528836E-2,-3.1919785E-2,-1.1445845E-2,-7.1322195E-2,3.0532375E-2,1.0826203E-2,-7.358859E-2,-6.843101E-2,6.547492E-3],"split_indices":[2,15,5,18,18,16,0,14,0,15,15,0,16,0,0,8,15,5,19,0,0,14,0,1,1,16,16,0,4,0,0,0,0,0,0,0,0,0,0,0,0],"split_type":[0,0,0,0,0,0,0,0,0,0,0,0,0,0,0,0,0,0,0,0,0,0,0,0,0,0,0,0,0,0,0,0,0,0,0,0,0,0,0,0,0],"sum_hessian":[9.443282E2,7.185662E2,2.2576198E2,2.5582571E1,6.9298364E2,2.24004E2,1.7579881E0,3.045282E0,2.2537289E1,6.109339E2,8.204978E1,1.3777288E0,2.2262627E2,1.83826E0,1.2070218E0,3.622118E1,5.747127E2,4.0409626E1,4.164016E1,2.2124854E2,1.3777288E0,3.1616526E1,4.6046567E0,5.2210308E1,5.225024E2,2.2839039E1,1.7570585E1,2.9268732E1,1.2371427E1,2.590355E1,5.7129765E0,2.6027084E1,2.6183226E1,1.2441053E2,3.9809186E2,4.385154E0,1.8453886E1,6.9511576E0,1.0619429E1,4.709009E0,7.662418E0],"tree_param":{"num_deleted":"0","num_feature":"20","num_nodes":"41","size_leaf_vector":"1"}},{"base_weights":[-2.1719902E-3,-4.0717766E-1,1.3110182E0,-1.22869E0,-3.757759E-1,1.3164994E0,1.9933911E-2,-2.210419E-1,-6.7556515E-2,-3.3174673E-1,-6.9936866E-1,2.231454E-2,1.3199149E0,-4.9278587E-2,4.2973943E-2,6.0992604E-1,-3.518043E-1,-2.6103687E-1,-1.1142907E0,6.616869E-2,2.231454E-2,-6.0294267E-2,1.0876111E0,-6.988218E-1,-2.7953014E-1,-8.3866143E-1,1.5167598E-1,-6.8103164E-2,-4.8184007E-1,7.259419E-2,-4.901138E-2,-6.713588E-2,-2.3790503E-2,-2.2732452E-2,-5.7409606E-3,-7.59015E-2,-7.101861E-4,-2.3139982E-2,5.4233976E-2,6.4464966E-3,-6.6642456E-2],"categories":[],"categories_nodes":[],"categories_segments":[],"categories_sizes":[],"default_left":[0,0,0,0,0,0,0,0,0,0,0,0,0,0,0,0,0,0,0,0,0,0,0,0,0,0,0,0,0,0,0,0,0,0,0,0,0,0,0,0,0],"id":11,"left_children":[1,3,5,7,9,11,-1,13,-1,15,17,-1,19,-1,-1,21,23,25,27,-1,-1,-1,29,31,33,35,37,-1,39,-1,-1,-1,-1,-1,-1,-1,-1,-1,-1,-1,-1],"loss_changes":[4.9835834E2,1.8012817E1,5.796509E-1,2.9000015E0,9.616264E0,6.222534E-2,0E0,4.1552134E0,0E0,1.1742508E1,1.4601677E1,0E0,6.7352295E-2,0E0,0E0,1.2669885E1,1.4808945E1,9.931049E0,5.8875656E0,0E0,0E0,0E0,9.628648E0,1.4073196E1,1.427729E1,9.663565E0,1.473909E1,0E0,7.0859327E0,0E0,0E0,0E0,0E0,0E0,0E0,0E0,0E0,0E0,0E0,0E0,0E0],"parents":[2147483647,0,0,1,1,2,2,3,3,4,4,5,5,7,7,9,9,10,10,12,12,15,15,16,16,17,17,18,18,22,22,23,23,24,24,25,25,26,26,28,28],"right_children":[2,4,6,8,10,12,-1,14,-1,16,18,-1,20,-1,-1,22,24,26,28,-1,-1,-1,30,32,34,36,38,-1,40,-1,-1,-1,-1,-1,-1,-1,-1,-1,-1,-1,-1],"split_conditions":[2E0,3E0,1.6947389E0,6.8E1,8.63E2,3E0,1.9933911E-2,5.12E4,-6.7556515E-2,-1.4129188E0,2.3E1,2.231454E-2,2.23E2,-4.9278587E-2,4.2973943E-2,2E0,-3.8152006E-1,1E0,1.7E1,6.616869E-2,2.231454E-2,-6.0294267E-2,7E0,3E0,1E0,1.7E1,9.73E2,-6.8103164E-2,3E0,7.259419E-2,-4.901138E-2,-6.713588E-2,-2.3790503E-2,-2.2732452E-2,-5.7409606E-3,-7.59015E-2,-7.101861E-4,-2.3139982E-2,5.4233976E-2,6.4464966E-3,-6.6642456E-2],"split_indices":[2,15,5,18,18,16,0,14,0,6,15,0,16,0,0,11,1,10,19,0,0,0,9,9,2,15,18,0,13,0,0,0,0,0,0,0,0,0,0,0,0],"split_type":[0,0,0,0,0,0,0,0,0,0,0,0,0,0,0,0,0,0,0,0,0,0,0,0,0,0,0,0,0,0,0,0,0,0,0,0,0,0,0,0,0],"sum_hessian":[9.350252E2,7.1515247E2,2.1987277E2,2.4926006E1,6.9022644E2,2.1811937E2,1.7534049E0,3.004569E0,2.1921438E1,6.0934235E2,8.0884094E1,1.3675292E0,2.1675183E2,1.8110335E0,1.1935357E0,1.209492E1,5.9724744E2,4.0124702E1,4.0759396E1,2.1538431E2,1.3675292E0,2.2016003E0,9.893319E0,1.0145444E2,4.9579297E2,1.6291449E1,2.3833252E1,2.8457205E1,1.2302191E1,8.664794E0,1.2285258E0,2.4807522E1,7.664692E1,2.3945097E2,2.56342E2,8.470418E0,7.821031E0,1.4673356E1,9.159896E0,7.655982E0,4.646209E0],"tree_param":{"num_deleted":"0","num_feature":"20","num_nodes":"41","size_leaf_vector":"1"}},{"base_weights":[-2.258422E-3,-3.8934857E-1,1.2816987E0,-1.2019565E0,-3.5897338E-1,1.2872275E0,1.9333633E-2,-2.139198E-1,-6.618213E-2,3.7582695E-1,-3.770289E-1,2.1766057E-2,1.290632E0,-4.8186846E-2,4.20817E-2,-5.507055E-2,6.342547E-1,1.2992379E-1,-4.0791517E-1,6.470402E-2,2.1766057E-2,-4.8491977E-2,8.4396935E-1,1.2776517E0,-2.6793727E-1,5.7130724E-1,-4.280542E-1,3.8821374E-3,6.2639475E-2,8.211294E-2,-4.3513484E-2,5.4084938E-2,-4.0930588E-2,-5.746627E-2,5.0579797E-2,-2.988005E-2,-1.4658309E-2],"categories":[],"categories_nodes":[],"categories_segments":[],"categories_sizes":[],"default_left":[0,0,0,0,0,0,0,0,0,0,0,0,0,0,0,0,0,0,0,0,0,0,0,0,0,0,0,0,0,0,0,0,0,0,0,0,0],"id":12,"left_children":[1,3,5,7,9,11,-1,13,-1,15,17,-1,19,-1,-1,-1,21,23,25,-1,-1,-1,27,29,31,33,35,-1,-1,-1,-1,-1,-1,-1,-1,-1,-1],"loss_changes":[4.6104483E2,1.7161522E1,5.656128E-1,2.753479E0,9.276123E0,5.633545E-2,0E0,3.9471574E0,0E0,7.1933765E0,1.0582672E1,0E0,6.1279297E-2,0E0,0E0,0E0,5.903002E0,1.8323261E1,1.2749535E1,0E0,0E0,0E0,4.257921E0,9.503185E0,2.3231794E1,1.1167797E1,1.4047562E1,0E0,0E0,0E0,0E0,0E0,0E0,0E0,0E0,0E0,0E0],"parents":[2147483647,0,0,1,1,2,2,3,3,4,4,5,5,7,7,9,9,10,10,12,12,16,16,17,17,18,18,22,22,23,23,24,24,25,25,26,26],"right_children":[2,4,6,8,10,12,-1,14,-1,16,18,-1,20,-1,-1,-1,22,24,26,-1,-1,-1,28,30,32,34,36,-1,-1,-1,-1,-1,-1,-1,-1,-1,-1],"split_conditions":[2E0,3E0,1.6947389E0,6.8E1,1.9E1,3E0,1.9333633E-2,5.12E4,-6.618213E-2,2E0,5E0,2.1766057E-2,2.23E2,-4.8186846E-2,4.20817E-2,-5.507055E-2,1.3E1,2.8E1,-1.4129188E0,6.470402E-2,2.1766057E-2,-4.8491977E-2,5E0,5.98E2,1.68E2,2E0,-2.7327234E-1,3.8821374E-3,6.2639475E-2,8.211294E-2,-4.3513484E-2,5.4084938E-2,-4.0930588E-2,-5.746627E-2,5.0579797E-2,-2.988005E-2,-1.4658309E-2],"split_indices":[2,15,5,18,0,16,0,14,0,8,15,0,16,0,0,0,15,0,6,0,0,0,9,18,18,11,6,0,0,0,0,0,0,0,0,0,0],"split_type":[0,0,0,0,0,0,0,0,0,0,0,0,0,0,0,0,0,0,0,0,0,0,0,0,0,0,0,0,0,0,0,0,0,0,0,0,0],"sum_hessian":[9.2563824E2,7.117539E2,2.1388434E2,2.4256802E1,6.874971E2,2.1213571E2,1.7486246E0,2.962291E0,2.1294512E1,1.6012821E1,6.7148425E2,1.357349E0,2.1077837E2,1.7828327E0,1.1794583E0,1.8985071E0,1.4114313E1,3.8376926E1,6.3310736E2,2.0942102E2,1.357349E0,1.2128367E0,1.2901477E1,9.309651E0,2.9067274E1,1.2206801E1,6.209005E2,4.902236E0,7.999241E0,8.159932E0,1.1497195E0,8.143711E0,2.0923563E1,2.1590235E0,1.0047778E1,2.7358682E2,3.4731372E2],"tree_param":{"num_deleted":"0","num_feature":"20","num_nodes":"37","size_leaf_vector":"1"}},{"base_weights":[-1.9916433E-3,-3.715647E-1,1.2544003E0,-1.1771207E0,-3.421759E-1,1.259993E0,1.8753266E-2,-2.0714049E-1,-6.491293E-2,-2.997713E-1,-6.58101E-1,2.1233108E-2,1.2633985E0,-4.7146864E-2,4.122584E-2,-3.3419606E-1,2.582779E-1,-2.2929998E-1,-1.0737923E0,6.334245E-2,2.1233108E-2,-4.7721827E-1,-1.9661526E-1,-8.7718254E-1,9.044126E-1,1.9620201E-1,-7.697518E-1,-6.630647E-2,-4.4991437E-1,-1.7393673E-2,-4.6909843E-2,-7.216074E-4,-2.856568E-2,6.2304553E-2,-5.998648E-2,-6.680291E-2,6.770148E-2,-6.713914E-2,3.0211588E-2,1.17965555E-2,-7.044671E-2,8.545711E-3,-6.41747E-2],"categories":[],"categories_nodes":[],"categories_segments":[],"categories_sizes":[],"default_left":[0,0,0,0,0,0,0,0,0,0,0,0,0,0,0,0,0,0,0,0,0,0,0,0,0,0,0,0,0,0,0,0,0,0,0,0,0,0,0,0,0,0,0],"id":13,"left_children":[1,3,5,7,9,11,-1,13,-1,15,17,-1,19,-1,-1,21,23,25,27,-1,-1,29,31,33,35,37,39,-1,41,-1,-1,-1,-1,-1,-1,-1,-1,-1,-1,-1,-1,-1,-1],"loss_changes":[4.2662607E2,1.6405014E1,5.544739E-1,2.6192207E0,8.997932E0,5.2581787E-2,0E0,3.75213E0,0E0,1.1747025E1,1.4083073E1,0E0,5.74646E-2,0E0,0E0,1.1164589E1,2.7082043E1,9.54323E0,5.7865868E0,0E0,0E0,1.6358578E1,2.0015366E1,1.0742577E1,2.5309877E1,1.5661224E1,1.2027829E1,0E0,7.0455523E0,0E0,0E0,0E0,0E0,0E0,0E0,0E0,0E0,0E0,0E0,0E0,0E0,0E0,0E0],"parents":[2147483647,0,0,1,1,2,2,3,3,4,4,5,5,7,7,9,9,10,10,12,12,15,15,16,16,17,17,18,18,21,21,22,22,23,23,24,24,25,25,26,26,28,28],"right_children":[2,4,6,8,10,12,-1,14,-1,16,18,-1,20,-1,-1,22,24,26,28,-1,-1,30,32,34,36,38,40,-1,42,-1,-1,-1,-1,-1,-1,-1,-1,-1,-1,-1,-1,-1,-1],"split_conditions":[2E0,3E0,1.6947389E0,6.8E1,8.63E2,3E0,1.8753266E-2,5.12E4,-6.491293E-2,8.2E2,2.3E1,2.1233108E-2,2.23E2,-4.7146864E-2,4.122584E-2,2.6E1,8.545052E-3,-1.6437092E-1,1.7E1,6.334245E-2,2.1233108E-2,2.1E1,4.1E1,-6.4470387E-1,4E1,6.5E1,7.5E1,-6.630647E-2,5.9E1,-1.7393673E-2,-4.6909843E-2,-7.216074E-4,-2.856568E-2,6.2304553E-2,-5.998648E-2,-6.680291E-2,6.770148E-2,-6.713914E-2,3.0211588E-2,1.17965555E-2,-7.044671E-2,8.545711E-3,-6.41747E-2],"split_indices":[2,15,5,18,18,16,0,14,0,18,15,0,16,0,0,15,5,5,19,0,0,15,15,1,0,16,16,0,0,0,0,0,0,0,0,0,0,0,0,0,0,0,0],"split_type":[0,0,0,0,0,0,0,0,0,0,0,0,0,0,0,0,0,0,0,0,0,0,0,0,0,0,0,0,0,0,0,0,0,0,0,0,0,0,0,0,0,0,0],"sum_hessian":[9.167983E2,7.0895917E2,2.078391E2,2.3579676E1,6.853795E2,2.0609543E2,1.7436763E0,2.9187212E0,2.0660955E1,6.0599023E2,7.938926E1,1.3472065E0,2.0474821E2,1.7538447E0,1.1648765E0,5.7115796E2,3.4832256E1,3.9842182E1,3.954708E1,2.0340102E2,1.3472065E0,2.7883066E2,2.923273E2,1.2502998E1,2.2329256E1,2.2648111E1,1.719407E1,2.735664E1,1.2190441E1,2.191067E2,5.9723965E1,1.9739154E2,9.493577E1,1.2712549E0,1.1231744E1,3.4025552E0,1.89267E1,4.266198E0,1.8381912E1,6.9266453E0,1.0267426E1,7.4424553E0,4.747986E0],"tree_param":{"num_deleted":"0","num_feature":"20","num_nodes":"43","size_leaf_vector":"1"}},{"base_weights":[-2.0813192E-3,-3.553524E-1,1.2288816E0,-1.153969E0,-3.2691512E-1,1.2345529E0,1.8191965E-2,-2.006777E-1,-6.373706E-2,-6.088095E-1,-2.811593E-1,2.0715073E-2,1.2379704E0,-4.6154328E-2,4.0403847E-2,-7.487422E-2,-3.8882756E-1,-4.244524E-1,-1.4516899E-1,6.2071692E-2,2.0715073E-2,-6.863802E-2,-1.07948E0,-8.198635E-1,-2.6513526E-1,-9.5017725E-1,-6.225635E-2,-6.847926E-2,7.4289306E-3,4.7276462E-3,-7.3648475E-2,3.0515535E-2,-4.704809E-2,-2.3595523E-3,-3.4947835E-2,3.298048E-2,-6.18E-2,-1.3877987E-2,1.0379035E-2],"categories":[],"categories_nodes":[],"categories_segments":[],"categories_sizes":[],"default_left":[0,0,0,0,0,0,0,0,0,0,0,0,0,0,0,0,0,0,0,0,0,0,0,0,0,0,0,0,0,0,0,0,0,0,0,0,0,0,0],"id":14,"left_children":[1,3,5,7,9,11,-1,13,-1,15,17,-1,19,-1,-1,-1,21,23,25,-1,-1,27,29,31,33,35,37,-1,-1,-1,-1,-1,-1,-1,-1,-1,-1,-1,-1],"loss_changes":[3.954349E2,1.5668922E1,5.4559326E-1,2.4956684E0,8.646805E0,5.0628662E-2,0E0,3.5691166E0,0E0,1.7913868E1,1.1436207E1,0E0,5.5389404E-2,0E0,0E0,0E0,1.6995779E1,1.7848972E1,2.0248432E1,0E0,0E0,1.54089155E1,1.1403284E1,1.4756382E1,1.9434618E1,1.3855221E1,1.6145437E1,0E0,0E0,0E0,0E0,0E0,0E0,0E0,0E0,0E0,0E0,0E0,0E0],"parents":[2147483647,0,0,1,1,2,2,3,3,4,4,5,5,7,7,9,9,10,10,12,12,16,16,17,17,18,18,21,21,22,22,23,23,24,24,25,25,26,26],"right_children":[2,4,6,8,10,12,-1,14,-1,16,18,-1,20,-1,-1,-1,22,24,26,-1,-1,28,30,32,34,36,38,-1,-1,-1,-1,-1,-1,-1,-1,-1,-1,-1,-1],"split_conditions":[2E0,3E0,1.6947389E0,6.8E1,-3.966732E-1,3E0,1.8191965E-2,5.12E4,-6.373706E-2,7E0,1E0,2.0715073E-2,2.23E2,-4.6154328E-2,4.0403847E-2,-7.487422E-2,-1.3017261E-1,1E0,-1.2278651E0,6.2071692E-2,2.0715073E-2,4.2E1,-9.2984813E-1,2E1,-1.14649594E-1,2.4E1,3E0,-6.847926E-2,7.4289306E-3,4.7276462E-3,-7.3648475E-2,3.0515535E-2,-4.704809E-2,-2.3595523E-3,-3.4947835E-2,3.298048E-2,-6.18E-2,-1.3877987E-2,1.0379035E-2],"split_indices":[2,15,5,18,1,16,0,14,0,19,2,0,16,0,0,0,5,12,5,0,0,16,1,0,1,0,11,0,0,0,0,0,0,0,0,0,0,0,0],"split_type":[0,0,0,0,0,0,0,0,0,0,0,0,0,0,0,0,0,0,0,0,0,0,0,0,0,0,0,0,0,0,0,0,0,0,0,0,0,0,0],"sum_hessian":[9.073267E2,7.055531E2,2.0177365E2,2.2898724E1,6.8265436E2,2.0003506E2,1.7385867E0,2.8741088E0,2.0024616E1,9.3613045E1,5.890413E2,1.3371171E0,1.9869795E2,1.7242385E0,1.1498703E0,1.7422592E1,7.619045E1,2.8578665E2,3.0325467E2,1.9736082E2,1.3371171E0,5.2807873E1,2.3382584E1,8.088674E1,2.048999E2,2.73407E1,2.7591397E2,6.7966185E0,4.6011253E1,6.0603504E0,1.7322233E1,5.9989657E0,7.488777E1,1.3712134E2,6.777856E1,3.9252846E0,2.3415417E1,1.5344855E2,1.2246543E2],"tree_param":{"num_deleted":"0","num_feature":"20","num_nodes":"39","size_leaf_vector":"1"}},{"base_weights":[-2.1521964E-3,-3.3968094E-1,1.2049344E0,-1.1323165E0,-3.121705E-1,1.2106978E0,1.7648922E-2,-1.9450752E-1,-6.2644266E-2,-2.709319E-1,-6.2437135E-1,2.021138E-2,1.214137E0,-4.5205392E-2,3.9613474E-2,-5.1087006E-3,-3.3975723E-1,3.971559E-1,-7.9018646E-1,6.0881186E-2,2.021138E-2,-8.5308385E-1,2.0846164E-1,-2.8654167E-1,-1.139296E0,-5.5766404E-2,1.0324688E0,-4.2418712E-1,-1.1147275E0,-6.827802E-2,3.4800015E-2,1.7276244E-2,-5.2242216E-2,-9.319973E-3,-3.1661164E-2,-6.4435504E-2,6.0960572E-2,7.1284115E-2,-3.8677838E-2,-9.742127E-3,-6.821455E-2,-6.7217626E-2,-2.7371803E-2],"categories":[],"categories_nodes":[],"categories_segments":[],"categories_sizes":[],"default_left":[0,0,0,0,0,0,0,0,0,0,0,0,0,0,0,0,0,0,0,0,0,0,0,0,0,0,0,0,0,0,0,0,0,0,0,0,0,0,0,0,0,0,0],"id":15,"left_children":[1,3,5,7,9,11,-1,13,-1,15,17,-1,19,-1,-1,21,23,25,27,-1,-1,29,31,33,35,-1,37,39,41,-1,-1,-1,-1,-1,-1,-1,-1,-1,-1,-1,-1,-1,-1],"loss_changes":[3.6677985E2,1.4987122E1,5.385742E-1,2.3815174E0,8.60231E0,5.001831E-2,0E0,3.3972044E0,0E0,1.1040779E1,1.3648718E1,0E0,5.46875E-2,0E0,0E0,2.2842426E1,2.0071896E1,1.2355357E1,7.6121254E0,0E0,0E0,2.109459E1,1.7672077E1,1.5533947E1,1.1995708E1,0E0,7.3025475E0,6.979444E0,3.8834686E0,0E0,0E0,0E0,0E0,0E0,0E0,0E0,0E0,0E0,0E0,0E0,0E0,0E0,0E0],"parents":[2147483647,0,0,1,1,2,2,3,3,4,4,5,5,7,7,9,9,10,10,12,12,15,15,16,16,17,17,18,18,21,21,22,22,23,23,24,24,26,26,27,27,28,28],"right_children":[2,4,6,8,10,12,-1,14,-1,16,18,-1,20,-1,-1,22,24,26,28,-1,-1,30,32,34,36,-1,38,40,42,-1,-1,-1,-1,-1,-1,-1,-1,-1,-1,-1,-1,-1,-1],"split_conditions":[2E0,3E0,1.6947389E0,6.8E1,8.63E2,3E0,1.7648922E-2,5.12E4,-6.2644266E-2,1E0,1E0,2.021138E-2,2.23E2,-4.5205392E-2,3.9613474E-2,1.0514E4,1.7369976E0,9.38E2,2.3E1,6.0881186E-2,2.021138E-2,1.2679805E0,4.3E1,5.1E4,2.1E1,-5.5766404E-2,6E1,3E0,4.3E1,-6.827802E-2,3.4800015E-2,1.7276244E-2,-5.2242216E-2,-9.319973E-3,-3.1661164E-2,-6.4435504E-2,6.0960572E-2,7.1284115E-2,-3.8677838E-2,-9.742127E-3,-6.821455E-2,-6.7217626E-2,-2.7371803E-2],"split_indices":[2,15,5,18,18,16,0,14,0,11,9,0,16,0,0,14,6,18,15,0,0,5,15,14,19,0,0,7,15,0,0,0,0,0,0,0,0,0,0,0,0,0,0],"split_type":[0,0,0,0,0,0,0,0,0,0,0,0,0,0,0,0,0,0,0,0,0,0,0,0,0,0,0,0,0,0,0,0,0,0,0,0,0,0,0,0,0,0,0],"sum_hessian":[8.982312E2,7.0251166E2,1.9571956E2,2.2217493E1,6.802941E2,1.9398619E2,1.7333797E0,2.8286796E0,1.9388813E1,6.0256866E2,7.772549E1,1.3270954E0,1.9265909E2,1.6941663E0,1.1345134E0,1.2414797E2,4.7842072E2,1.0659705E1,6.706578E1,1.91332E2,1.3270954E0,2.437466E1,9.977331E1,4.4983878E2,2.8581919E1,2.929622E0,7.7300835E0,3.260392E1,3.4461857E1,1.8404467E1,5.9701943E0,9.0590515E1,9.182793E0,3.502139E2,9.962488E1,2.7305666E1,1.2762532E0,6.520924E0,1.2091593E0,2.7180351E1,5.42357E0,2.355687E1,1.0904987E1],"tree_param":{"num_deleted":"0","num_feature":"20","num_nodes":"43","size_leaf_vector":"1"}},{"base_weights":[-2.242579E-3,-3.2480967E-1,1.1823767E0,-1.1120021E0,-2.981934E-1,1.188245E0,1.7123384E-2,-1.8860899E-1,-6.162564E-2,-2.582318E-1,-6.04239E-1,1.9721469E-2,1.1917149E0,-4.4296604E-2,3.8852636E-2,2.5976E-1,-2.9149693E-1,-1.9975606E-1,-1.0112315E0,5.976169E-2,1.9721469E-2,7.5672895E-1,-5.7995826E-1,-8.275407E-1,-2.370066E-1,-7.554489E-1,1.8869291E-1,-6.377063E-2,-3.9003336E-1,4.7267232E-2,-4.9243987E-2,5.8753025E-2,-7.671962E-2,-1.2299839E-2,-6.895139E-2,-1.4200034E-2,1.66943E-2,-7.114714E-2,1.6530392E-3,-1.9381326E-2,5.2366138E-2,-6.378147E-2,9.745518E-3],"categories":[],"categories_nodes":[],"categories_segments":[],"categories_sizes":[],"default_left":[0,0,0,0,0,0,0,0,0,0,0,0,0,0,0,0,0,0,0,0,0,0,0,0,0,0,0,0,0,0,0,0,0,0,0,0,0,0,0,0,0,0,0],"id":16,"left_children":[1,3,5,7,9,11,-1,13,-1,15,17,-1,19,-1,-1,21,23,25,27,-1,-1,29,31,33,35,37,39,-1,41,-1,-1,-1,-1,-1,-1,-1,-1,-1,-1,-1,-1,-1,-1],"loss_changes":[3.4048987E2,1.4342194E1,5.3302E-1,2.2756596E0,8.145847E0,5.0476074E-2,0E0,3.2355618E0,0E0,1.0451534E1,1.2581146E1,0E0,5.505371E-2,0E0,0E0,1.5823345E1,1.6344791E1,8.818345E0,5.814102E0,0E0,0E0,8.681251E0,2.5709969E1,1.6290443E1,1.3923325E1,8.855689E0,1.2507887E1,0E0,6.93952E0,0E0,0E0,0E0,0E0,0E0,0E0,0E0,0E0,0E0,0E0,0E0,0E0,0E0,0E0],"parents":[2147483647,0,0,1,1,2,2,3,3,4,4,5,5,7,7,9,9,10,10,12,12,15,15,16,16,17,17,18,18,21,21,22,22,23,23,24,24,25,25,26,26,28,28],"right_children":[2,4,6,8,10,12,-1,14,-1,16,18,-1,20,-1,-1,22,24,26,28,-1,-1,30,32,34,36,38,40,-1,42,-1,-1,-1,-1,-1,-1,-1,-1,-1,-1,-1,-1,-1,-1],"split_conditions":[2E0,3E0,1.6947389E0,6.8E1,8.63E2,3E0,1.7123384E-2,5.12E4,-6.162564E-2,5E0,2.3E1,1.9721469E-2,2.23E2,-4.4296604E-2,3.8852636E-2,5.3E1,1E1,1E0,1.7E1,5.976169E-2,1.9721469E-2,6E0,9.9E1,-2.9627985E-1,1.4959084E0,1.7E1,9.73E2,-6.377063E-2,4.830195E-2,4.7267232E-2,-4.9243987E-2,5.8753025E-2,-7.671962E-2,-1.2299839E-2,-6.895139E-2,-1.4200034E-2,1.66943E-2,-7.114714E-2,1.6530392E-3,-1.9381326E-2,5.2366138E-2,-6.378147E-2,9.745518E-3],"split_indices":[2,15,5,18,18,16,0,14,0,15,15,0,16,0,0,0,15,10,19,0,0,8,18,1,5,15,18,0,6,0,0,0,0,0,0,0,0,0,0,0,0,0,0],"split_type":[0,0,0,0,0,0,0,0,0,0,0,0,0,0,0,0,0,0,0,0,0,0,0,0,0,0,0,0,0,0,0,0,0,0,0,0,0,0,0,0,0,0,0],"sum_hessian":[8.890516E2,6.993478E2,1.897038E2,2.1539043E1,6.778088E2,1.8797571E2,1.7280777E0,2.7826376E0,1.8756405E1,6.0115704E2,7.665172E1,1.3171543E0,1.8665855E2,1.6637652E0,1.1188724E0,3.586547E1,5.6529156E2,3.9192097E1,3.7459618E1,1.853414E2,1.3171543E0,2.2593077E1,1.3272391E1,5.0852066E1,5.144395E2,1.5736121E1,2.3455975E1,2.5543444E1,1.1916176E1,2.0797874E1,1.795203E0,4.5939155E0,8.678476E0,2.5455385E1,2.539668E1,4.7577753E2,3.8661957E1,8.086279E0,7.6498423E0,1.4363577E1,9.092399E0,4.270273E0,7.645903E0],"tree_param":{"num_deleted":"0","num_feature":"20","num_nodes":"43","size_leaf_vector":"1"}},{"base_weights":[-2.277231E-3,-3.1067923E-1,1.1610507E0,-1.0928856E0,-2.849191E-1,1.1670356E0,1.661463E-2,-1.8296301E-1,-6.0673445E-2,-6.158037E-1,-2.4751015E-1,1.9244848E-2,1.1705443E0,-4.3424886E-2,3.8119454E-2,-2.354838E-1,-1.1382606E0,-5.832154E-1,-2.0268726E-1,5.8705192E-2,1.9244848E-2,3.8534507E-1,-9.722764E-1,-7.3512875E-2,-1.695855E-1,1.8970482E-1,-8.6692804E-1,3.5108066E-1,-2.612399E-1,5.6484785E-2,-1.606892E-2,-6.982108E-2,6.5745465E-3,-6.0176145E-2,4.6446245E-2,-4.3555696E-2,4.5940626E-2,2.2967838E-2,-5.3079247E-2,7.006747E-2,4.3589594E-3,-2.1900227E-2,-4.7601806E-3],"categories":[],"categories_nodes":[],"categories_segments":[],"categories_sizes":[],"default_left":[0,0,0,0,0,0,0,0,0,0,0,0,0,0,0,0,0,0,0,0,0,0,0,0,0,0,0,0,0,0,0,0,0,0,0,0,0,0,0,0,0,0,0],"id":17,"left_children":[1,3,5,7,9,11,-1,13,-1,15,17,-1,19,-1,-1,21,23,25,27,-1,-1,29,31,-1,33,35,37,39,41,-1,-1,-1,-1,-1,-1,-1,-1,-1,-1,-1,-1,-1,-1],"loss_changes":[3.1630914E2,1.3730698E1,5.285797E-1,2.1771507E0,8.215416E0,5.1742554E-2,0E0,3.0834363E0,0E0,1.3242424E1,9.046009E0,0E0,5.6274414E-2,0E0,0E0,1.8950798E1,8.878731E0,1.5778919E1,1.7562792E1,0E0,0E0,1.2333759E1,9.010578E0,0E0,1.0630562E1,1.6222692E1,1.3981163E1,1.4276974E1,1.4277E1,0E0,0E0,0E0,0E0,0E0,0E0,0E0,0E0,0E0,0E0,0E0,0E0,0E0,0E0],"parents":[2147483647,0,0,1,1,2,2,3,3,4,4,5,5,7,7,9,9,10,10,12,12,15,15,16,16,17,17,18,18,21,21,22,22,24,24,25,25,26,26,27,27,28,28],"right_children":[2,4,6,8,10,12,-1,14,-1,16,18,-1,20,-1,-1,22,24,26,28,-1,-1,30,32,-1,34,36,38,40,42,-1,-1,-1,-1,-1,-1,-1,-1,-1,-1,-1,-1,-1,-1],"split_conditions":[2E0,3E0,1.6947389E0,6.8E1,-4.1562048E-1,3E0,1.661463E-2,5.12E4,-6.0673445E-2,2E0,-1.1942587E0,1.9244848E-2,2.23E2,-4.3424886E-2,3.8119454E-2,-6.4158165E-1,6.9E1,1.2E1,-9.425994E-1,5.8705192E-2,1.9244848E-2,2E0,4E0,-7.3512875E-2,8E0,8E0,-1.4129188E0,1.0508E4,1E0,5.6484785E-2,-1.606892E-2,-6.982108E-2,6.5745465E-3,-6.0176145E-2,4.6446245E-2,-4.3555696E-2,4.5940626E-2,2.2967838E-2,-5.3079247E-2,7.006747E-2,4.3589594E-3,-2.1900227E-2,-4.7601806E-3],"split_indices":[2,15,5,18,1,16,0,14,0,7,5,0,16,0,0,5,0,15,5,0,0,11,11,0,9,15,6,14,2,0,0,0,0,0,0,0,0,0,0,0,0,0,0],"split_type":[0,0,0,0,0,0,0,0,0,0,0,0,0,0,0,0,0,0,0,0,0,0,0,0,0,0,0,0,0,0,0,0,0,0,0,0,0,0,0,0,0,0,0],"sum_hessian":[8.7963696E2,6.958878E2,1.8374918E2,2.0865984E1,6.7502185E2,1.8202647E2,1.7227006E0,2.736166E0,1.8129818E1,6.6994026E1,6.0802783E2,1.3073051E0,1.8071916E2,1.6331571E0,1.1030087E0,3.961049E1,2.7383537E1,7.020551E1,5.3782227E2,1.7941187E2,1.3073051E0,2.1755816E1,1.7854671E1,2.0008247E1,7.375289E0,1.8939596E1,5.126592E1,5.0951054E1,4.8687125E2,1.0304348E1,1.14514675E1,1.2706715E1,5.147958E0,3.7500656E0,3.6252236E0,7.635509E0,1.1304088E1,6.387203E0,4.4878716E1,9.36607E0,4.1584984E1,2.3502362E2,2.5184761E2],"tree_param":{"num_deleted":"0","num_feature":"20","num_nodes":"43","size_leaf_vector":"1"}},{"base_weights":[-2.1337264E-3,-2.9676244E-1,1.1408161E0,-1.0748433E0,-2.7183664E-1,1.1469289E0,1.6122015E-2,-1.7755233E-1,-5.9780825E-2,4.0167132E-1,-2.8870034E-1,1.8781021E-2,1.150484E0,-4.2587455E-2,3.7412196E-2,-5.0907135E-2,6.402518E-1,-5.9751385E-1,-2.4049535E-1,5.7704598E-2,1.8781021E-2,-4.584896E-2,8.390958E-1,-7.109862E-2,-3.8951442E-1,-4.0137395E-1,-1.2352526E-1,4.9266787E-3,6.1346978E-2,-4.444019E-2,-1.3181091E-3,-1.5541064E-2,-7.8560136E-2,2.1532541E-2,-1.1867507E-2],"categories":[],"categories_nodes":[],"categories_segments":[],"categories_sizes":[],"default_left":[0,0,0,0,0,0,0,0,0,0,0,0,0,0,0,0,0,0,0,0,0,0,0,0,0,0,0,0,0,0,0,0,0,0,0],"id":18,"left_children":[1,3,5,7,9,11,-1,13,-1,15,17,-1,19,-1,-1,-1,21,23,25,-1,-1,-1,27,-1,29,31,33,-1,-1,-1,-1,-1,-1,-1,-1],"loss_changes":[2.9390558E2,1.3165524E1,5.250244E-1,2.0851917E0,7.7677383E0,5.3604126E-2,0E0,2.940143E0,0E0,6.367984E0,9.648926E0,0E0,5.8135986E-2,0E0,0E0,0E0,5.432997E0,1.4562122E1,1.0689453E1,0E0,0E0,0E0,3.8651056E0,0E0,1.29890175E1,2.4914215E1,2.103666E1,0E0,0E0,0E0,0E0,0E0,0E0,0E0,0E0],"parents":[2147483647,0,0,1,1,2,2,3,3,4,4,5,5,7,7,9,9,10,10,12,12,16,16,17,17,18,18,22,22,24,24,25,25,26,26],"right_children":[2,4,6,8,10,12,-1,14,-1,16,18,-1,20,-1,-1,-1,22,24,26,-1,-1,-1,28,-1,30,32,34,-1,-1,-1,-1,-1,-1,-1,-1],"split_conditions":[2E0,3E0,1.6947389E0,6.8E1,1.9E1,3E0,1.6122015E-2,5.12E4,-5.9780825E-2,2E0,-3.966732E-1,1.8781021E-2,2.23E2,-4.2587455E-2,3.7412196E-2,-5.0907135E-2,1.3E1,7E0,-2.7327234E-1,5.7704598E-2,1.8781021E-2,-4.584896E-2,5E0,-7.109862E-2,4.8E1,-3.5562658E-1,-2.8676572E-1,4.9266787E-3,6.1346978E-2,-4.444019E-2,-1.3181091E-3,-1.5541064E-2,-7.8560136E-2,2.1532541E-2,-1.1867507E-2],"split_indices":[2,15,5,18,0,16,0,14,0,8,1,0,16,0,0,0,15,19,6,0,0,0,9,0,0,6,5,0,0,0,0,0,0,0,0],"split_type":[0,0,0,0,0,0,0,0,0,0,0,0,0,0,0,0,0,0,0,0,0,0,0,0,0,0,0,0,0,0,0,0,0,0,0],"sum_hessian":[8.7077625E2,6.929011E2,1.7787514E2,2.0200556E1,6.7270056E2,1.7615787E2,1.7172673E0,2.6894298E0,1.7511127E1,1.5874647E1,6.568259E2,1.2975576E0,1.7486032E2,1.6024514E0,1.0869783E0,1.813693E0,1.4060954E1,8.714667E1,5.6967926E2,1.7356276E2,1.2975576E0,1.1832075E0,1.2877747E1,1.6380798E1,7.076587E1,2.3880276E2,3.3087646E2,4.8572335E0,8.020514E0,2.9188215E1,4.1577652E1,2.2282063E2,1.5982127E1,5.5905827E1,2.7497064E2],"tree_param":{"num_deleted":"0","num_feature":"20","num_nodes":"35","size_leaf_vector":"1"}},{"base_weights":[-2.1424803E-3,-2.8355068E-1,1.1215506E0,-1.0577662E0,-2.5944644E-1,1.1278017E0,1.5644884E-2,-1.723614E-1,-5.894177E-2,-2.2091809E-1,-5.594336E-1,1.832953E-2,1.1314101E0,-4.178181E-2,3.6729295E-2,3.362162E-2,-2.8707156E-1,4.2676216E-1,-7.223386E-1,5.6753676E-2,1.832953E-2,-7.854109E-1,2.3711258E-1,-2.3598896E-1,-1.0641885E0,-5.251655E-2,1.0217422E0,-3.7191936E-1,-1.0492213E0,-6.4264916E-2,3.4323983E-2,3.877499E-2,-3.999273E-3,-7.068306E-3,-2.8305236E-2,-6.055E-2,5.9114184E-2,6.9199346E-2,-3.6351133E-2,2.4015042E-3,-4.2071622E-2,-6.450728E-2,-2.3747494E-2],"categories":[],"categories_nodes":[],"categories_segments":[],"categories_sizes":[],"default_left":[0,0,0,0,0,0,0,0,0,0,0,0,0,0,0,0,0,0,0,0,0,0,0,0,0,0,0,0,0,0,0,0,0,0,0,0,0,0,0,0,0,0,0],"id":19,"left_children":[1,3,5,7,9,11,-1,13,-1,15,17,-1,19,-1,-1,21,23,25,27,-1,-1,29,31,33,35,-1,37,39,41,-1,-1,-1,-1,-1,-1,-1,-1,-1,-1,-1,-1,-1,-1],"loss_changes":[2.733041E2,1.2624493E1,5.2211E-1,1.9991016E0,7.6393013E0,5.5999756E-2,0E0,2.8050575E0,0E0,1.0059902E1,1.2484598E1,0E0,6.048584E-2,0E0,0E0,2.085545E1,1.8558922E1,1.106852E1,7.1031265E0,0E0,0E0,1.9212177E1,1.7151915E1,1.3848257E1,1.0976719E1,0E0,6.4632883E0,6.5710163E0,3.994011E0,0E0,0E0,0E0,0E0,0E0,0E0,0E0,0E0,0E0,0E0,0E0,0E0,0E0,0E0],"parents":[2147483647,0,0,1,1,2,2,3,3,4,4,5,5,7,7,9,9,10,10,12,12,15,15,16,16,17,17,18,18,21,21,22,22,23,23,24,24,26,26,27,27,28,28],"right_children":[2,4,6,8,10,12,-1,14,-1,16,18,-1,20,-1,-1,22,24,26,28,-1,-1,30,32,34,36,-1,38,40,42,-1,-1,-1,-1,-1,-1,-1,-1,-1,-1,-1,-1,-1,-1],"split_conditions":[2E0,3E0,1.6947389E0,6.8E1,8.63E2,3E0,1.5644884E-2,5.12E4,-5.894177E-2,1E0,1E0,1.832953E-2,2.23E2,-4.178181E-2,3.6729295E-2,1.0514E4,1.7369976E0,9.38E2,2.3E1,5.6753676E-2,1.832953E-2,1.2679805E0,6.6E1,5.1E4,2.1E1,-5.251655E-2,6E1,-1.6437092E-1,4.3E1,-6.4264916E-2,3.4323983E-2,3.877499E-2,-3.999273E-3,-7.068306E-3,-2.8305236E-2,-6.055E-2,5.9114184E-2,6.9199346E-2,-3.6351133E-2,2.4015042E-3,-4.2071622E-2,-6.450728E-2,-2.3747494E-2],"split_indices":[2,15,5,18,18,16,0,14,0,11,9,0,16,0,0,14,6,18,15,0,0,5,16,14,19,0,0,5,15,0,0,0,0,0,0,0,0,0,0,0,0,0,0],"split_type":[0,0,0,0,0,0,0,0,0,0,0,0,0,0,0,0,0,0,0,0,0,0,0,0,0,0,0,0,0,0,0,0,0,0,0,0,0,0,0,0,0,0,0],"sum_hessian":[8.622887E2,6.901908E2,1.720979E2,1.9544643E1,6.706462E2,1.7038611E2,1.7117937E0,2.6425762E0,1.6902067E1,5.95855E2,7.479119E1,1.2879205E0,1.6909819E2,1.5717448E0,1.0708314E0,1.2301603E2,4.7283896E2,1.0373333E1,6.4417854E1,1.6781027E2,1.2879205E0,2.3912144E1,9.910388E1,4.4489792E2,2.7941017E1,2.7588675E0,7.6144657E0,3.2121395E1,3.2296463E1,1.7944542E1,5.9676023E0,3.6198456E1,6.2905426E1,3.4689407E2,9.800386E1,2.6659685E1,1.2813317E0,6.4806376E0,1.1338282E0,1.742951E1,1.4691884E1,2.1873348E1,1.0423112E1],"tree_param":{"num_deleted":"0","num_feature":"20","num_nodes":"43","size_leaf_vector":"1"}},{"base_weights":[-2.1183994E-3,-2.711087E-1,1.1031448E0,-1.0415584E0,-2.4778786E-1,1.109544E0,1.5182684E-2,-5.8621544E-2,-2.0411748E-1,4.7260785E-1,-2.6275313E-1,1.7889954E-2,1.1132122E0,-4.002994E-2,3.6069296E-2,-5.591445E-2,9.180526E-1,-5.8694565E-1,-2.1464513E-1,5.58469E-2,1.7889954E-2,1.2214365E0,-4.583591E-2,-6.87213E-2,-3.8784683E-1,-6.7093986E-1,-1.6631192E-1,8.058336E-2,4.3575726E-3,-4.376599E-3,-4.8774477E-2,-5.2998442E-2,1.85789E-2,1.9770566E-2,-1.1047556E-2],"categories":[],"categories_nodes":[],"categories_segments":[],"categories_sizes":[],"default_left":[0,0,0,0,0,0,0,0,0,0,0,0,0,0,0,0,0,0,0,0,0,0,0,0,0,0,0,0,0,0,0,0,0,0,0],"id":20,"left_children":[1,3,5,7,9,11,-1,-1,13,15,17,-1,19,-1,-1,-1,21,23,25,-1,-1,27,-1,-1,29,31,33,-1,-1,-1,-1,-1,-1,-1,-1],"loss_changes":[2.543123E2,1.2102768E1,5.1968384E-1,1.9416676E0,7.3372116E0,5.8685303E-2,0E0,0E0,2.7307165E0,1.0928851E1,1.0106426E1,0E0,6.3201904E-2,0E0,0E0,0E0,7.502014E0,1.2668531E1,1.2522835E1,0E0,0E0,4.404331E0,0E0,0E0,1.2021325E1,2.2513987E1,1.6026997E1,0E0,0E0,0E0,0E0,0E0,0E0,0E0,0E0],"parents":[2147483647,0,0,1,1,2,2,3,3,4,4,5,5,8,8,9,9,10,10,12,12,16,16,17,17,18,18,21,21,24,24,25,25,26,26],"right_children":[2,4,6,8,10,12,-1,-1,14,16,18,-1,20,-1,-1,-1,22,24,26,-1,-1,28,-1,-1,30,32,34,-1,-1,-1,-1,-1,-1,-1,-1],"split_conditions":[2E0,3E0,1.6947389E0,5.12E4,-1.4129188E0,3E0,1.5182684E-2,-5.8621544E-2,1.158008E0,2E0,-3.966732E-1,1.7889954E-2,2.23E2,-4.002994E-2,3.6069296E-2,-5.591445E-2,7E0,7E0,-1.1942587E0,5.58469E-2,1.7889954E-2,1E0,-4.583591E-2,-6.87213E-2,-1.3017261E-1,5E0,-9.5226514E-1,8.058336E-2,4.3575726E-3,-4.376599E-3,-4.8774477E-2,-5.2998442E-2,1.85789E-2,1.9770566E-2,-1.1047556E-2],"split_indices":[2,15,5,14,6,16,0,0,6,11,1,0,16,0,0,0,9,19,5,0,0,12,0,0,5,13,5,0,0,0,0,0,0,0,0],"split_type":[0,0,0,0,0,0,0,0,0,0,0,0,0,0,0,0,0,0,0,0,0,0,0,0,0,0,0,0,0,0,0,0,0,0,0],"sum_hessian":[8.5338574E2,6.869548E2,1.6643097E2,1.889983E1,6.6805493E2,1.6472467E2,1.7062957E0,1.599947E1,2.90036E0,1.2973203E1,6.550817E2,1.2784016E0,1.6344627E2,1.8457464E0,1.0546138E0,2.5074387E0,1.0465764E1,8.3201164E1,5.718806E2,1.6216788E2,1.2784016E0,9.267624E0,1.1981406E0,1.5599284E1,6.760188E1,5.3540874E1,5.183397E2,6.5822506E0,2.6853728E0,4.5498714E1,2.2103167E1,3.897872E1,1.4562153E1,4.539682E1,4.729429E2],"tree_param":{"num_deleted":"0","num_feature":"20","num_nodes":"35","size_leaf_vector":"1"}},{"base_weights":[-2.0653803E-3,-2.5903404E-1,1.0855019E0,-1.02593E0,-2.3648442E-1,1.0920587E0,1.4734815E-2,-1.5569766E-1,-5.7424646E-2,-1.9900344E-1,-5.3244805E-1,1.7461894E-2,1.0957928E0,-3.993932E-2,3.5430875E-2,-2.3097749E-1,3.1242535E-1,-1.464431E-1,-9.4170636E-1,5.497935E-2,1.7461894E-2,-3.7180844E-1,-9.660824E-2,-7.7924275E-1,9.1893697E-1,6.176551E-1,-4.2330664E-1,-6.117627E-2,-3.2317445E-1,-1.2397802E-2,-4.091556E-2,3.6910248E-3,-2.2577738E-2,5.9005976E-2,-5.4492157E-2,-6.1877128E-2,6.680112E-2,-4.5053978E-2,4.7694784E-2,1.1471416E-2,-4.6341088E-2,-5.951124E-2,1.2687161E-2],"categories":[],"categories_nodes":[],"categories_segments":[],"categories_sizes":[],"default_left":[0,0,0,0,0,0,0,0,0,0,0,0,0,0,0,0,0,0,0,0,0,0,0,0,0,0,0,0,0,0,0,0,0,0,0,0,0,0,0,0,0,0,0],"id":21,"left_children":[1,3,5,7,9,11,-1,13,-1,15,17,-1,19,-1,-1,21,23,25,27,-1,-1,29,31,33,35,37,39,-1,41,-1,-1,-1,-1,-1,-1,-1,-1,-1,-1,-1,-1,-1,-1],"loss_changes":[2.3672025E2,1.1605637E1,5.175781E-1,1.8765545E0,7.2916107E0,6.163025E-2,0E0,2.531362E0,0E0,9.7774315E0,1.1609613E1,0E0,6.611633E-2,0E0,0E0,1.0545227E1,2.411977E1,8.607719E0,5.8642254E0,0E0,0E0,1.4875515E1,1.742478E1,9.298396E0,2.2503807E1,6.4256554E0,9.925543E0,0E0,6.6043224E0,0E0,0E0,0E0,0E0,0E0,0E0,0E0,0E0,0E0,0E0,0E0,0E0,0E0,0E0],"parents":[2147483647,0,0,1,1,2,2,3,3,4,4,5,5,7,7,9,9,10,10,12,12,15,15,16,16,17,17,18,18,21,21,22,22,23,23,24,24,25,25,26,26,28,28],"right_children":[2,4,6,8,10,12,-1,14,-1,16,18,-1,20,-1,-1,22,24,26,28,-1,-1,30,32,34,36,38,40,-1,42,-1,-1,-1,-1,-1,-1,-1,-1,-1,-1,-1,-1,-1,-1],"split_conditions":[2E0,3E0,1.6947389E0,6.8E1,8.63E2,3E0,1.4734815E-2,5.12E4,-5.7424646E-2,8.2E2,2.3E1,1.7461894E-2,2.23E2,-3.993932E-2,3.5430875E-2,2.6E1,8.545052E-3,-3.6661267E-1,1.7E1,5.497935E-2,1.7461894E-2,2.1E1,4.1E1,1.9E1,4E1,-1.2503968E0,9E0,-6.117627E-2,1E0,-1.2397802E-2,-4.091556E-2,3.6910248E-3,-2.2577738E-2,5.9005976E-2,-5.4492157E-2,-6.1877128E-2,6.680112E-2,-4.5053978E-2,4.7694784E-2,1.1471416E-2,-4.6341088E-2,-5.951124E-2,1.2687161E-2],"split_indices":[2,15,5,18,18,16,0,14,0,18,15,0,16,0,0,15,5,1,19,0,0,15,15,0,0,5,19,0,4,0,0,0,0,0,0,0,0,0,0,0,0,0,0],"split_type":[0,0,0,0,0,0,0,0,0,0,0,0,0,0,0,0,0,0,0,0,0,0,0,0,0,0,0,0,0,0,0,0,0,0,0,0,0,0,0,0,0,0,0],"sum_hessian":[8.4502454E2,6.841391E2,1.6088547E2,1.8270655E1,6.658684E2,1.5918468E2,1.7007865E0,2.5358357E0,1.5734819E1,5.925056E2,7.336281E1,1.2690078E0,1.5791566E2,1.4974687E0,1.0383672E0,5.5815845E2,3.4347168E1,3.8452724E1,3.491008E1,1.5664667E2,1.2690078E0,2.7166367E2,2.8649478E2,1.2165512E1,2.2181656E1,9.899851E0,2.8552876E1,2.3310915E1,1.1599163E1,2.138896E2,5.7774063E1,1.9409262E2,9.2402176E1,1.2815603E0,1.0883952E1,3.2760744E0,1.8905582E1,1.4899889E0,8.4098625E0,1.267104E1,1.5881835E1,4.20955E0,7.3896136E0],"tree_param":{"num_deleted":"0","num_feature":"20","num_nodes":"43","size_leaf_vector":"1"}},{"base_weights":[-2.086195E-3,-2.4776436E-1,1.0685351E0,-1.011209E0,-2.2595325E-1,1.0752581E0,1.4300774E-2,-5.714174E-2,-1.852261E-1,1.9122472E-1,-2.5150436E-1,1.7044967E-2,1.0790637E0,-3.846146E-2,3.481281E-2,6.5110123E-1,-5.772872E-1,-6.695072E-1,-2.0804107E-1,1.0829322E0,1.7044967E-2,-5.4742754E-2,8.5894036E-1,1.162323E0,-7.246276E-2,-1.3417798E-1,-1.1871196E0,-2.4769978E-1,3.1019428E-1,5.4851707E-2,7.0078343E-1,6.319145E-2,-9.512308E-3,1.8316573E-2,7.5706355E-2,-5.1283974E-2,2.0645304E-2,-6.556466E-2,2.4700513E-2,-9.440334E-3,-4.4881795E-2,8.606867E-4,7.2678E-2,-1.7961018E-2,4.528058E-2],"categories":[],"categories_nodes":[],"categories_segments":[],"categories_sizes":[],"default_left":[0,0,0,0,0,0,0,0,0,0,0,0,0,0,0,0,0,0,0,0,0,0,0,0,0,0,0,0,0,0,0,0,0,0,0,0,0,0,0,0,0,0,0,0,0],"id":22,"left_children":[1,3,5,7,9,11,-1,-1,13,15,17,-1,19,-1,-1,21,23,25,27,29,-1,-1,31,33,-1,35,37,39,41,-1,43,-1,-1,-1,-1,-1,-1,-1,-1,-1,-1,-1,-1,-1,-1],"loss_changes":[2.2050644E2,1.1125572E1,5.1564026E-1,1.8161201E0,7.1281395E0,6.468201E-2,0E0,0E0,2.4697027E0,1.4124431E1,1.123933E1,0E0,6.919861E-2,0E0,0E0,9.942582E0,2.4579922E1,1.6061218E1,1.1766499E1,5.1727295E-2,0E0,0E0,9.8958435E0,1.0119734E0,0E0,1.5008478E1,6.8339653E0,2.0074863E1,1.3667716E1,0E0,2.1028752E0,0E0,0E0,0E0,0E0,0E0,0E0,0E0,0E0,0E0,0E0,0E0,0E0,0E0,0E0],"parents":[2147483647,0,0,1,1,2,2,3,3,4,4,5,5,8,8,9,9,10,10,12,12,15,15,16,16,17,17,18,18,19,19,22,22,23,23,25,25,26,26,27,27,28,28,30,30],"right_children":[2,4,6,8,10,12,-1,-1,14,16,18,-1,20,-1,-1,22,24,26,28,30,-1,-1,32,34,-1,36,38,40,42,-1,44,-1,-1,-1,-1,-1,-1,-1,-1,-1,-1,-1,-1,-1,-1],"split_conditions":[2E0,3E0,1.6947389E0,5.12E4,5E0,3E0,1.4300774E-2,-5.714174E-2,1.158008E0,5.3E1,1E1,1.7044967E-2,2.23E2,-3.846146E-2,3.481281E-2,-8.848128E-1,9.9E1,-2.9627985E-1,1.4959084E0,8.3E1,1.7044967E-2,-5.4742754E-2,1.0628012E-1,1.82E2,-7.246276E-2,3E0,9.81E2,1.2026037E0,2E1,5.4851707E-2,2E0,6.319145E-2,-9.512308E-3,1.8316573E-2,7.5706355E-2,-5.1283974E-2,2.0645304E-2,-6.556466E-2,2.4700513E-2,-9.440334E-3,-4.4881795E-2,8.606867E-4,7.2678E-2,-1.7961018E-2,4.528058E-2],"split_indices":[2,15,5,14,15,16,0,0,6,0,15,0,16,0,0,6,18,1,5,0,0,0,6,16,0,13,18,5,19,0,9,0,0,0,0,0,0,0,0,0,0,0,0,0,0],"split_type":[0,0,0,0,0,0,0,0,0,0,0,0,0,0,0,0,0,0,0,0,0,0,0,0,0,0,0,0,0,0,0,0,0,0,0,0,0,0,0,0,0,0,0,0,0],"sum_hessian":[8.363309E2,6.8086066E2,1.5547023E2,1.7651485E1,6.6320917E2,1.5377496E2,1.6952786E0,1.4894365E1,2.7571201E0,3.7901405E1,6.2530774E2,1.2597444E0,1.5251521E2,1.734992E0,1.022128E0,2.3807692E1,1.4093715E1,5.753811E1,5.6776965E2,1.5125546E2,1.2597444E0,2.0785978E0,2.1729095E1,4.5945063E0,9.499208E0,2.8904003E1,2.8634104E1,5.2789386E2,3.98758E1,1.4406842E2,7.1870527E0,1.55309925E1,6.198102E0,2.0339E0,2.5606065E0,1.0659307E1,1.8244698E1,2.6869434E1,1.7646698E0,4.8521704E2,4.2676804E1,3.255009E1,7.325709E0,1.0418129E0,6.14524E0],"tree_param":{"num_deleted":"0","num_feature":"20","num_nodes":"45","size_leaf_vector":"1"}},{"base_weights":[-1.8567272E-3,-2.365705E-1,1.0522307E0,-9.969382E-1,-2.1548215E-1,1.0591285E0,1.3880054E-2,-1.4009936E-1,-5.6062866E-2,-4.1341595E-2,-2.7736542E-1,1.6638784E-2,1.0630107E0,-3.82267E-2,3.421399E-2,-7.6633435E-1,1.4241773E-1,-5.6103057E-1,-1.4868897E-1,1.0669589E0,1.6638784E-2,6.222538E-1,-1.0781142E0,5.232908E-1,-4.0775257E-1,-1.0048201E0,-3.7675643E-1,2.7106044E-1,-2.5375533E-1,5.40653E-2,6.8349767E-1,7.242289E-2,-5.5168666E-2,3.1701997E-2,-6.912361E-2,3.4249835E-3,4.746386E-2,4.048556E-3,-4.390645E-2,4.9318047E-3,-7.646134E-2,-4.056358E-2,5.6588124E-3,-1.8148286E-3,8.078601E-2,-3.0408917E-2,-1.8876418E-3,4.4643454E-2,-1.9103209E-2],"categories":[],"categories_nodes":[],"categories_segments":[],"categories_sizes":[],"default_left":[0,0,0,0,0,0,0,0,0,0,0,0,0,0,0,0,0,0,0,0,0,0,0,0,0,0,0,0,0,0,0,0,0,0,0,0,0,0,0,0,0,0,0,0,0,0,0,0,0],"id":23,"left_children":[1,3,5,7,9,11,-1,13,-1,15,17,-1,19,-1,-1,21,23,25,27,29,-1,31,33,35,37,39,41,43,45,-1,47,-1,-1,-1,-1,-1,-1,-1,-1,-1,-1,-1,-1,-1,-1,-1,-1,-1,-1],"loss_changes":[2.054205E2,1.0674023E1,5.13916E-1,1.7655888E0,7.1227283E0,6.790161E-2,0E0,2.2887158E0,0E0,2.3390205E1,1.7738949E1,0E0,7.243347E-2,0E0,0E0,1.6037083E1,2.9603706E1,1.2052673E1,1.4942464E1,6.977844E-2,0E0,1.178082E1,1.617165E1,1.6076727E1,1.3390357E1,2.5611877E1,2.3298279E1,2.816315E1,2.066698E1,0E0,2.1304834E0,0E0,0E0,0E0,0E0,0E0,0E0,0E0,0E0,0E0,0E0,0E0,0E0,0E0,0E0,0E0,0E0,0E0,0E0],"parents":[2147483647,0,0,1,1,2,2,3,3,4,4,5,5,7,7,9,9,10,10,12,12,15,15,16,16,17,17,18,18,19,19,21,21,22,22,23,23,24,24,25,25,26,26,27,27,28,28,30,30],"right_children":[2,4,6,8,10,12,-1,14,-1,16,18,-1,20,-1,-1,22,24,26,28,30,-1,32,34,36,38,40,42,44,46,-1,48,-1,-1,-1,-1,-1,-1,-1,-1,-1,-1,-1,-1,-1,-1,-1,-1,-1,-1],"split_conditions":[2E0,3E0,1.6947389E0,6.8E1,1E0,3E0,1.3880054E-2,5.12E4,-5.6062866E-2,2.6E2,-5.549413E-1,1.6638784E-2,2.23E2,-3.82267E-2,3.421399E-2,8E0,6.31E2,1E0,-3.692368E-1,8.3E1,1.6638784E-2,-6.904993E-1,4.3E1,2.6E1,8.7E1,-1.2195925E0,1.34E2,-4.102138E-1,4.4E1,5.40653E-2,1.7E1,7.242289E-2,-5.5168666E-2,3.1701997E-2,-6.912361E-2,3.4249835E-3,4.746386E-2,4.048556E-3,-4.390645E-2,4.9318047E-3,-7.646134E-2,-4.056358E-2,5.6588124E-3,-1.8148286E-3,8.078601E-2,-3.0408917E-2,-1.8876418E-3,4.4643454E-2,-1.9103209E-2],"split_indices":[2,15,5,18,7,16,0,14,0,18,6,0,16,0,0,15,18,12,5,0,0,5,18,15,16,6,16,5,0,0,19,0,0,0,0,0,0,0,0,0,0,0,0,0,0,0,0,0,0],"split_type":[0,0,0,0,0,0,0,0,0,0,0,0,0,0,0,0,0,0,0,0,0,0,0,0,0,0,0,0,0,0,0,0,0,0,0,0,0,0,0,0,0,0,0,0,0,0,0,0,0],"sum_hessian":[8.2828143E2,6.780709E2,1.5021056E2,1.7049656E1,6.6102124E2,1.4852078E2,1.6897836E0,2.4297986E0,1.4619857E1,1.7375105E2,4.872702E2,1.2506163E0,1.4727016E2,1.4238687E0,1.0059301E0,3.4493237E1,1.3925781E2,1.5101035E2,3.3625983E2,1.4601955E2,1.2506163E0,6.142096E0,2.8351143E1,8.231882E1,5.6938995E1,4.3000027E1,1.0801032E2,6.70018E1,2.6925803E2,1.3899908E2,7.020459E0,4.2620907E0,1.8800052E0,4.1156282E0,2.4235514E1,4.037476E1,4.194406E1,2.8330898E1,2.8608097E1,1.4113761E1,2.8886267E1,5.689499E1,5.1115337E1,5.5328125E1,1.16736765E1,1.0127217E2,1.6798587E2,6.003001E0,1.0174578E0],"tree_param":{"num_deleted":"0","num_feature":"20","num_nodes":"49","size_leaf_vector":"1"}},{"base_weights":[-1.7332393E-3,-2.2597891E-1,1.0364548E0,-9.834305E-1,-2.055956E-1,1.043535E0,1.3472172E-2,-5.5807818E-2,-1.6752852E-1,4.3273148E-1,-2.2179756E-1,1.6243031E-2,1.0474987E0,-3.574348E-2,2.7672252E-2,-4.772666E-2,6.564183E-1,-5.148E-1,-1.770794E-1,1.0515318E0,1.6243031E-2,-4.243953E-2,8.4146816E-1,-6.670008E-2,-3.174193E-1,-3.3073944E-1,-6.622598E-2,5.3307522E-2,6.6646856E-1,6.776988E-3,6.0187604E-2,-5.287635E-2,-3.954878E-3,-1.2122152E-2,-7.452666E-2,2.224827E-2,-8.638926E-3,-1.8514995E-2,4.3853503E-2],"categories":[],"categories_nodes":[],"categories_segments":[],"categories_sizes":[],"default_left":[0,0,0,0,0,0,0,0,0,0,0,0,0,0,0,0,0,0,0,0,0,0,0,0,0,0,0,0,0,0,0,0,0,0,0,0,0,0,0],"id":24,"left_children":[1,3,5,7,9,11,-1,-1,13,15,17,-1,19,-1,-1,-1,21,23,25,27,-1,-1,29,-1,31,33,35,-1,37,-1,-1,-1,-1,-1,-1,-1,-1,-1,-1],"loss_changes":[1.9147403E2,1.02402725E1,5.1220703E-1,1.7037392E0,6.9206905E0,7.107544E-2,0E0,0E0,1.8239386E0,5.800606E0,8.349747E0,0E0,7.563782E-2,0E0,0E0,0E0,4.878642E0,1.3284683E1,9.524509E0,8.836365E-2,0E0,0E0,3.370307E0,0E0,1.2197868E1,2.366522E1,1.7878338E1,0E0,2.0406408E0,0E0,0E0,0E0,0E0,0E0,0E0,0E0,0E0,0E0,0E0],"parents":[2147483647,0,0,1,1,2,2,3,3,4,4,5,5,8,8,9,9,10,10,12,12,16,16,17,17,18,18,19,19,22,22,24,24,25,25,26,26,28,28],"right_children":[2,4,6,8,10,12,-1,-1,14,16,18,-1,20,-1,-1,-1,22,24,26,28,-1,-1,30,-1,32,34,36,-1,38,-1,-1,-1,-1,-1,-1,-1,-1,-1,-1],"split_conditions":[2E0,3E0,1.6947389E0,5.12E4,1.9E1,3E0,1.3472172E-2,-5.5807818E-2,7.5E1,2E0,-3.966732E-1,1.6243031E-2,2.23E2,-3.574348E-2,2.7672252E-2,-4.772666E-2,1.3E1,7E0,-2.7327234E-1,8.3E1,1.6243031E-2,-4.243953E-2,5E0,-6.670008E-2,3E0,-3.5562658E-1,-2.8676572E-1,5.3307522E-2,2E0,6.776988E-3,6.0187604E-2,-5.287635E-2,-3.954878E-3,-1.2122152E-2,-7.452666E-2,2.224827E-2,-8.638926E-3,-1.8514995E-2,4.3853503E-2],"split_indices":[2,15,5,14,0,16,0,0,0,8,1,0,16,0,0,0,15,19,6,0,0,0,9,0,9,6,5,0,9,0,0,0,0,0,0,0,0,0,0],"split_type":[0,0,0,0,0,0,0,0,0,0,0,0,0,0,0,0,0,0,0,0,0,0,0,0,0,0,0,0,0,0,0,0,0,0,0,0,0,0,0],"sum_hessian":[8.204445E2,6.753526E2,1.4509192E2,1.6459637E1,6.5889294E2,1.4340761E2,1.6843113E0,1.3840196E1,2.6194396E0,1.5673598E1,6.4321936E2,1.241628E0,1.4216597E2,1.4938335E0,1.1256063E0,1.722666E0,1.39509325E1,8.377784E1,5.594415E2,1.4092435E2,1.241628E0,1.1346642E0,1.2816268E1,1.5148316E1,6.8629524E1,2.3362181E2,3.258197E2,1.3406586E2,6.858486E0,4.8126683E0,8.003599E0,1.5879227E1,5.2750298E1,2.1821768E2,1.5404119E1,5.5651707E1,2.70168E2,1.0299345E0,5.828552E0],"tree_param":{"num_deleted":"0","num_feature":"20","num_nodes":"39","size_leaf_vector":"1"}},{"base_weights":[-1.767491E-3,-2.1599975E-1,1.0211543E0,-9.699756E-1,-1.9630606E-1,1.0284246E0,1.3076695E-2,-1.2359355E-1,-5.4837503E-2,4.923616E-1,-2.1073247E-1,1.5857352E-2,1.0324743E0,-3.4527756E-2,2.5539363E-2,-5.2679896E-2,9.1013193E-1,-5.182883E-1,-1.6607955E-1,1.0470291E0,6.4986813E-1,1.2018582E0,-4.393339E-2,-3.3304617E-1,-6.630764E-2,-5.961423E-1,-1.2127417E-1,5.257508E-2,1.5857352E-2,8.6510867E-1,-1.9595722E-2,7.863533E-2,5.3800703E-3,-6.380118E-2,-7.100208E-3,-4.8892878E-2,1.9966692E-2,2.0838711E-2,-8.702294E-3,1.6038124E-2,4.8135754E-2],"categories":[],"categories_nodes":[],"categories_segments":[],"categories_sizes":[],"default_left":[0,0,0,0,0,0,0,0,0,0,0,0,0,0,0,0,0,0,0,0,0,0,0,0,0,0,0,0,0,0,0,0,0,0,0,0,0,0,0,0,0],"id":25,"left_children":[1,3,5,7,9,11,-1,13,-1,15,17,-1,19,-1,-1,-1,21,23,25,27,29,31,-1,33,-1,35,37,-1,-1,39,-1,-1,-1,-1,-1,-1,-1,-1,-1,-1,-1],"loss_changes":[1.785864E2,9.814655E0,5.103607E-1,1.6775913E0,6.6400833E0,7.423401E-2,0E0,1.5498229E0,0E0,9.871081E0,8.773388E0,0E0,8.920288E-2,0E0,0E0,0E0,7.0049467E0,1.1727211E1,1.0810794E1,9.579468E-2,2.0659115E0,3.9796085E0,0E0,1.1975759E1,0E0,2.0543114E1,1.4631695E1,0E0,0E0,4.6875477E-2,0E0,0E0,0E0,0E0,0E0,0E0,0E0,0E0,0E0,0E0,0E0],"parents":[2147483647,0,0,1,1,2,2,3,3,4,4,5,5,7,7,9,9,10,10,12,12,16,16,17,17,18,18,19,19,20,20,21,21,23,23,25,25,26,26,29,29],"right_children":[2,4,6,8,10,12,-1,14,-1,16,18,-1,20,-1,-1,-1,22,24,26,28,30,32,-1,34,-1,36,38,-1,-1,40,-1,-1,-1,-1,-1,-1,-1,-1,-1,-1,-1],"split_conditions":[2E0,3E0,1.6947389E0,6.8E1,-1.4129188E0,3E0,1.3076695E-2,7.5E1,-5.4837503E-2,2E0,-3.966732E-1,1.5857352E-2,8.3E1,-3.4527756E-2,2.5539363E-2,-5.2679896E-2,7E0,5.1E4,-1.1942587E0,2.23E2,1.7E1,1E0,-4.393339E-2,7E0,-6.630764E-2,5E0,-9.5226514E-1,5.257508E-2,1.5857352E-2,-8.715913E-1,-1.9595722E-2,7.863533E-2,5.3800703E-3,-6.380118E-2,-7.100208E-3,-4.8892878E-2,1.9966692E-2,2.0838711E-2,-8.702294E-3,1.6038124E-2,4.8135754E-2],"split_indices":[2,15,5,18,6,16,0,0,0,11,1,0,0,0,0,0,9,14,5,16,19,12,0,19,0,13,5,0,0,6,0,0,0,0,0,0,0,0,0,0,0],"split_type":[0,0,0,0,0,0,0,0,0,0,0,0,0,0,0,0,0,0,0,0,0,0,0,0,0,0,0,0,0,0,0,0,0,0,0,0,0,0,0,0,0],"sum_hessian":[8.129249E2,6.728067E2,1.4011823E2,1.5897961E1,6.5690875E2,1.3843936E2,1.6788707E0,2.3283226E0,1.3569638E1,1.2799001E1,6.4410974E2,1.2327824E0,1.3720657E2,1.1827344E0,1.1455883E0,2.3991158E0,1.0399885E1,8.031529E1,5.6379443E2,1.305054E2,6.701171E0,9.223751E0,1.1761343E0,6.648307E1,1.3832218E1,5.2034836E1,5.117596E2,1.2927263E2,1.2327824E0,5.6942763E0,1.0068945E0,6.562466E0,2.6612844E0,1.0243281E1,5.623979E1,3.7625168E1,1.4409668E1,4.5093967E1,4.6666565E2,1.5175055E0,4.1767707E0],"tree_param":{"num_deleted":"0","num_feature":"20","num_nodes":"41","size_leaf_vector":"1"}},{"base_weights":[-1.7175145E-3,-2.0641635E-1,1.006309E0,-9.571431E-1,-1.8738703E-1,1.0137763E0,1.2693173E-2,-5.46108E-2,-1.495142E-1,-1.5200731E-1,-4.7305962E-1,1.0282253E0,6.3503885E-1,-3.4446184E-2,2.7159555E-2,9.364863E-2,-2.1622522E-1,-9.016727E-2,-8.9425445E-1,7.8456646E-1,1.0579019E0,-1.8993668E-2,8.51245E-1,-6.977646E-1,2.8642574E-1,-1.6755742E-1,-9.720962E-1,2.9699108E-1,-6.126346E-1,-5.9529733E-2,-2.7999374E-1,9.616328E-1,1.0942561E-1,8.5011595E-1,1.1059833E0,4.76251E-2,1.4916018E-2,-5.9902158E-2,3.6059972E-2,2.0891694E-2,-4.7216717E-2,-1.3569811E-2,5.2186805E-3,-5.6347173E-2,5.3482093E-2,-5.920292E-2,3.297711E-2,1.7087145E-2,-6.357734E-2,1.4621535E-2,-5.7960402E-2,1.7248506E-2,5.354191E-2,-3.0552322E-2,3.8775515E-2,4.5667913E-2,-3.5378903E-3,5.5686634E-2,1.548145E-2],"categories":[],"categories_nodes":[],"categories_segments":[],"categories_sizes":[],"default_left":[0,0,0,0,0,0,0,0,0,0,0,0,0,0,0,0,0,0,0,0,0,0,0,0,0,0,0,0,0,0,0,0,0,0,0,0,0,0,0,0,0,0,0,0,0,0,0,0,0,0,0,0,0,0,0,0,0,0,0],"id":26,"left_children":[1,3,5,7,9,11,-1,-1,13,15,17,19,21,-1,-1,23,25,27,29,31,33,-1,35,37,39,41,43,45,47,-1,49,51,53,55,57,-1,-1,-1,-1,-1,-1,-1,-1,-1,-1,-1,-1,-1,-1,-1,-1,-1,-1,-1,-1,-1,-1,-1,-1],"loss_changes":[1.6662889E2,9.409632E0,5.0849915E-1,1.620306E0,6.5570316E0,8.380127E-2,0E0,0E0,1.6824775E0,9.250045E0,1.14992695E1,9.6084595E-2,1.9828484E0,0E0,0E0,1.8804909E1,1.6910648E1,8.014948E0,5.870121E0,2.019701E0,1.7168427E-1,0E0,8.218098E-2,1.8026947E1,1.636883E1,1.2375138E1,1.001589E1,1.3085638E1,1.1004496E1,0E0,6.578736E0,5.702667E-1,2.787746E0,1.534359E0,1.9242859E-1,0E0,0E0,0E0,0E0,0E0,0E0,0E0,0E0,0E0,0E0,0E0,0E0,0E0,0E0,0E0,0E0,0E0,0E0,0E0,0E0,0E0,0E0,0E0,0E0],"parents":[2147483647,0,0,1,1,2,2,3,3,4,4,5,5,8,8,9,9,10,10,11,11,12,12,15,15,16,16,17,17,18,18,19,19,20,20,22,22,23,23,24,24,25,25,26,26,27,27,28,28,30,30,31,31,32,32,33,33,34,34],"right_children":[2,4,6,8,10,12,-1,-1,14,16,18,20,22,-1,-1,24,26,28,30,32,34,-1,36,38,40,42,44,46,48,-1,50,52,54,56,58,-1,-1,-1,-1,-1,-1,-1,-1,-1,-1,-1,-1,-1,-1,-1,-1,-1,-1,-1,-1,-1,-1,-1,-1],"split_conditions":[2E0,3E0,1.6947389E0,5.12E4,8.63E2,8.3E1,1.2693173E-2,-5.46108E-2,8.4307116E-1,1E0,2.3E1,4E0,2E0,-3.4446184E-2,2.7159555E-2,1.0514E4,1.7369976E0,-1.6437092E-1,1.7E1,6.5E1,3E0,-1.8993668E-2,6.1416113E-1,1.2679805E0,4.3E1,4E0,6.6730475E0,6.5E1,7.5E1,-5.9529733E-2,3E0,1E0,2E0,1.8E1,2.23E2,4.76251E-2,1.4916018E-2,-5.9902158E-2,3.6059972E-2,2.0891694E-2,-4.7216717E-2,-1.3569811E-2,5.2186805E-3,-5.6347173E-2,5.3482093E-2,-5.920292E-2,3.297711E-2,1.7087145E-2,-6.357734E-2,1.4621535E-2,-5.7960402E-2,1.7248506E-2,5.354191E-2,-3.0552322E-2,3.8775515E-2,4.5667913E-2,-3.5378903E-3,5.5686634E-2,1.548145E-2],"split_indices":[2,15,5,14,18,0,0,0,6,11,15,19,9,0,0,14,6,5,19,0,2,0,1,5,15,11,1,16,16,0,13,12,11,19,16,0,0,0,0,0,0,0,0,0,0,0,0,0,0,0,0,0,0,0,0,0,0,0,0],"split_type":[0,0,0,0,0,0,0,0,0,0,0,0,0,0,0,0,0,0,0,0,0,0,0,0,0,0,0,0,0,0,0,0,0,0,0,0,0,0,0,0,0,0,0,0,0,0,0,0,0,0,0,0,0,0,0,0,0,0,0],"sum_hessian":[8.055313E2,6.7022473E2,1.3530656E2,1.5350055E1,6.548747E2,1.3363309E2,1.6734699E0,1.2848773E1,2.5012817E0,5.840712E2,7.080343E1,1.27070404E2,6.5626917E0,1.4093108E0,1.0919709E0,1.2094729E2,4.6312396E2,3.772402E1,3.307941E1,1.6775183E1,1.1029522E2,1.0195826E0,5.543109E0,2.3177307E1,9.776998E1,4.3625665E2,2.6867313E1,2.1915655E1,1.5808361E1,2.168134E1,1.1398071E1,1.2953563E1,3.8216205E0,2.4236559E1,8.605866E1,4.074319E0,1.4687902E0,1.7250912E1,5.926394E0,8.893491E1,8.835065E0,3.1570456E2,1.2055208E2,2.5389776E1,1.4775364E0,3.864198E0,1.8051456E1,6.65317E0,9.155191E0,7.3076935E0,4.090378E0,2.5745382E0,1.03790245E1,1.8755533E0,1.9460671E0,2.268668E1,1.5498792E0,8.483458E1,1.2240825E0],"tree_param":{"num_deleted":"0","num_feature":"20","num_nodes":"59","size_leaf_vector":"1"}},{"base_weights":[-1.6593608E-3,-1.9754082E-1,9.921111E-1,-9.445838E-1,-1.7915305E-1,9.997809E-1,1.2321213E-2,-1.09419845E-1,-5.3715166E-2,-1.1612468E-2,-2.3884007E-1,1.0144812E0,6.205342E-1,-3.3224188E-2,2.5094641E-2,-7.1609986E-1,1.6482644E-1,-5.117588E-1,-1.1635662E-1,7.689799E-1,1.0447239E0,-1.8395603E-2,8.375908E-1,6.0364926E-1,-1.0187652E0,5.2522546E-1,-3.6475924E-1,-9.522551E-1,-3.3145773E-1,-2.6828828E-1,1.486429E-1,9.474993E-1,1.06299505E-1,8.3369476E-1,1.0940218E0,1.3866874E-2,4.7112297E-2,6.921286E-2,-5.2908845E-2,3.1752497E-2,-6.607757E-2,4.4120764E-3,4.6539735E-2,5.279155E-3,-4.13122E-2,6.2036286E-3,-7.373872E-2,-3.7657984E-2,6.8183797E-3,1.1127728E-2,-2.1880476E-2,2.0492077E-2,-2.7538586E-2,1.6755883E-2,5.2947838E-2,-2.9150888E-2,3.8195845E-2,4.488606E-2,-3.4250345E-3,3.0011257E-2,5.575911E-2],"categories":[],"categories_nodes":[],"categories_segments":[],"categories_sizes":[],"default_left":[0,0,0,0,0,0,0,0,0,0,0,0,0,0,0,0,0,0,0,0,0,0,0,0,0,0,0,0,0,0,0,0,0,0,0,0,0,0,0,0,0,0,0,0,0,0,0,0,0,0,0,0,0,0,0,0,0,0,0,0,0],"id":27,"left_children":[1,3,5,7,9,11,-1,13,-1,15,17,19,21,-1,-1,23,25,27,29,31,33,-1,35,37,39,41,43,45,47,49,51,53,55,57,59,-1,-1,-1,-1,-1,-1,-1,-1,-1,-1,-1,-1,-1,-1,-1,-1,-1,-1,-1,-1,-1,-1,-1,-1,-1,-1],"loss_changes":[1.5572461E2,9.010164E0,5.0697327E-1,1.5962543E0,6.53154E0,9.553528E-2,0E0,1.4329368E0,0E0,2.1583382E1,1.6044083E1,1.14494324E-1,1.901856E0,0E0,0E0,1.4505613E1,2.6705421E1,1.1513004E1,1.3479525E1,1.9514999E0,2.0394135E-1,0E0,1.1369038E-1,1.0695013E1,1.5190702E1,1.4640478E1,1.2425605E1,2.4209743E1,2.1253866E1,1.7760132E1,2.2565325E1,5.692606E-1,2.6247997E0,1.4777222E0,2.0583344E-1,0E0,0E0,0E0,0E0,0E0,0E0,0E0,0E0,0E0,0E0,0E0,0E0,0E0,0E0,0E0,0E0,0E0,0E0,0E0,0E0,0E0,0E0,0E0,0E0,0E0,0E0],"parents":[2147483647,0,0,1,1,2,2,3,3,4,4,5,5,7,7,9,9,10,10,11,11,12,12,15,15,16,16,17,17,18,18,19,19,20,20,22,22,23,23,24,24,25,25,26,26,27,27,28,28,29,29,30,30,31,31,32,32,33,33,34,34],"right_children":[2,4,6,8,10,12,-1,14,-1,16,18,20,22,-1,-1,24,26,28,30,32,34,-1,36,38,40,42,44,46,48,50,52,54,56,58,60,-1,-1,-1,-1,-1,-1,-1,-1,-1,-1,-1,-1,-1,-1,-1,-1,-1,-1,-1,-1,-1,-1,-1,-1,-1,-1],"split_conditions":[2E0,3E0,1.6947389E0,6.8E1,1E0,8.3E1,1.2321213E-2,2E0,-5.3715166E-2,2.6E2,-5.549413E-1,4E0,2E0,-3.3224188E-2,2.5094641E-2,8E0,6.31E2,1E0,1.5E1,6.5E1,3E0,-1.8395603E-2,1.8E1,-6.904993E-1,4.3E1,2.6E1,8.7E1,-1.2195925E0,1.34E2,1E0,3.5E1,1E0,2E0,1.8E1,-1.5261284E0,1.3866874E-2,4.7112297E-2,6.921286E-2,-5.2908845E-2,3.1752497E-2,-6.607757E-2,4.4120764E-3,4.6539735E-2,5.279155E-3,-4.13122E-2,6.2036286E-3,-7.373872E-2,-3.7657984E-2,6.8183797E-3,1.1127728E-2,-2.1880476E-2,2.0492077E-2,-2.7538586E-2,1.6755883E-2,5.2947838E-2,-2.9150888E-2,3.8195845E-2,4.488606E-2,-3.4250345E-3,3.0011257E-2,5.575911E-2],"split_indices":[2,15,5,18,7,0,0,12,0,18,6,19,9,0,0,15,18,12,19,0,2,0,15,5,18,15,16,6,16,11,15,12,11,19,5,0,0,0,0,0,0,0,0,0,0,0,0,0,0,0,0,0,0,0,0,0,0,0,0,0,0],"split_type":[0,0,0,0,0,0,0,0,0,0,0,0,0,0,0,0,0,0,0,0,0,0,0,0,0,0,0,0,0,0,0,0,0,0,0,0,0,0,0,0,0,0,0,0,0,0,0,0,0,0,0,0,0,0,0,0,0,0,0,0,0],"sum_hessian":[7.979708E2,6.672507E2,1.3072014E2,1.4819177E1,6.524315E2,1.2905202E2,1.6681163E0,2.2401426E0,1.2579034E1,1.7169125E2,4.8074026E2,1.22623886E2,6.4281306E0,1.1285005E0,1.1116421E0,3.3775078E1,1.3791617E2,1.4793405E2,3.328062E2,1.6347387E1,1.062765E2,1.0322771E0,5.3958535E0,6.1153073E0,2.7659773E1,8.207196E1,5.584421E1,4.17217E1,1.0621236E2,2.1152219E2,1.2128401E2,1.2539559E1,3.8078284E0,2.3517359E1,8.275914E1,1.423799E0,3.9720545E0,4.2744846E0,1.8408228E0,4.110562E0,2.354921E1,4.009203E1,4.1979927E1,2.803863E1,2.7805584E1,1.3884279E1,2.783742E1,5.5539047E1,5.0673313E1,5.417132E1,1.5735086E2,8.860734E1,3.2676678E1,2.5478077E0,9.991752E0,1.9144908E0,1.8933377E0,2.196362E1,1.55374E0,4.607378E0,7.8151764E1],"tree_param":{"num_deleted":"0","num_feature":"20","num_nodes":"61","size_leaf_vector":"1"}},{"base_weights":[-1.4595964E-3,-1.8883525E-1,9.7820926E-1,-9.325459E-1,-1.7107019E-1,9.86086E-1,1.1960421E-2,-5.3517032E-2,-1.2419747E-1,4.385838E-1,-1.866796E-1,9.906257E-1,1.3799583E-2,2.6958471E-2,-3.3017457E-2,-4.5775145E-2,6.5032256E-1,2.4569708E-1,-2.1368061E-1,1.0059752E0,6.0634637E-1,8.304136E-1,-4.129642E-2,1.2573035E0,-1.1950794E-1,-5.9949964E-1,-1.7311981E-1,7.537795E-1,1.0379082E0,-1.7817419E-2,8.2416725E-1,7.010051E-3,5.915307E-2,7.7964954E-2,-3.6652364E-2,5.182139E-2,-3.1219536E-2,1.3162255E-2,-4.6149503E-2,-2.1059774E-2,-4.93163E-3,4.6684843E-2,5.1739756E-3,4.0875953E-2,5.4547943E-2,4.6472147E-2,1.3520963E-2],"categories":[],"categories_nodes":[],"categories_segments":[],"categories_sizes":[],"default_left":[0,0,0,0,0,0,0,0,0,0,0,0,0,0,0,0,0,0,0,0,0,0,0,0,0,0,0,0,0,0,0,0,0,0,0,0,0,0,0,0,0,0,0,0,0,0,0],"id":28,"left_children":[1,3,5,7,9,11,-1,-1,13,15,17,19,-1,-1,-1,-1,21,23,25,27,29,31,-1,33,35,37,39,41,43,-1,45,-1,-1,-1,-1,-1,-1,-1,-1,-1,-1,-1,-1,-1,-1,-1,-1],"loss_changes":[1.455441E2,8.63394E0,5.051346E-1,1.5715866E0,6.279497E0,1.315918E-1,0E0,0E0,1.5510547E0,5.342473E0,7.4740944E0,1.2412262E-1,0E0,0E0,0E0,0E0,4.6479025E0,1.4126371E1,9.268068E0,1.6919708E-1,1.8239291E0,3.188468E0,0E0,7.2267895E0,1.7401905E1,1.6029356E1,9.997995E0,1.8844709E0,3.0329132E-1,0E0,1.131773E-1,0E0,0E0,0E0,0E0,0E0,0E0,0E0,0E0,0E0,0E0,0E0,0E0,0E0,0E0,0E0,0E0],"parents":[2147483647,0,0,1,1,2,2,3,3,4,4,5,5,8,8,9,9,10,10,11,11,16,16,17,17,18,18,19,19,20,20,21,21,23,23,24,24,25,25,26,26,27,27,28,28,30,30],"right_children":[2,4,6,8,10,12,-1,-1,14,16,18,20,-1,-1,-1,-1,22,24,26,28,30,32,-1,34,36,38,40,42,44,-1,46,-1,-1,-1,-1,-1,-1,-1,-1,-1,-1,-1,-1,-1,-1,-1,-1],"split_conditions":[2E0,3E0,1.6947389E0,7.7E1,1.9E1,2.23E2,1.1960421E-2,-5.3517032E-2,7.9E1,2E0,5E0,8.3E1,1.3799583E-2,2.6958471E-2,-3.3017457E-2,-4.5775145E-2,1.282324E0,2.8E1,1E1,4E0,2E0,5E0,-4.129642E-2,5.98E2,1.68E2,-8.607733E-1,-3.507677E-1,6.5E1,3E0,-1.7817419E-2,3E0,7.010051E-3,5.915307E-2,7.7964954E-2,-3.6652364E-2,5.182139E-2,-3.1219536E-2,1.3162255E-2,-4.6149503E-2,-2.1059774E-2,-4.93163E-3,4.6684843E-2,5.1739756E-3,4.0875953E-2,5.4547943E-2,4.6472147E-2,1.3520963E-2],"split_indices":[2,15,5,0,0,16,0,0,0,8,15,0,0,0,0,0,6,0,15,19,9,9,0,18,18,6,1,0,2,0,11,0,0,0,0,0,0,0,0,0,0,0,0,0,0,0,0],"split_type":[0,0,0,0,0,0,0,0,0,0,0,0,0,0,0,0,0,0,0,0,0,0,0,0,0,0,0,0,0,0,0,0,0,0,0,0,0,0,0,0,0,0,0,0,0,0,0],"sum_hessian":[7.908641E2,6.6456396E2,1.26300095E2,1.4302795E1,6.5026117E2,1.24637276E2,1.662816E0,1.1942853E1,2.3599422E0,1.5556998E1,6.3470416E2,1.2345298E2,1.1842948E0,1.0523131E0,1.3076291E0,1.6542426E0,1.3902756E1,3.6830154E1,5.97874E2,1.1715553E2,6.2974496E0,1.2781053E1,1.1217034E0,9.121408E0,2.7708746E1,5.5563847E1,5.423102E2,1.5932355E1,1.01223175E2,1.0446185E0,5.252831E0,4.794562E0,7.9864902E0,8.107785E0,1.0136224E0,8.103309E0,1.9605438E1,1.52032385E1,4.0360607E1,1.2415709E2,4.1815308E2,1.2138284E1,3.7940714E0,2.2822308E1,7.840087E1,3.8436399E0,1.4091914E0],"tree_param":{"num_deleted":"0","num_feature":"20","num_nodes":"47","size_leaf_vector":"1"}},{"base_weights":[-1.1308396E-3,-1.8022178E-1,9.644914E-1,-9.207274E-1,-1.6306336E-1,9.7258145E-1,1.1610419E-2,-5.2993465E-2,-1.2071256E-1,4.460168E-1,-1.7870684E-1,9.772224E-1,1.34749925E-2,-3.2441247E-2,2.6422698E-2,8.310056E-1,-5.464537E-2,-6.4262754E-1,-1.4968273E-1,9.928493E-1,5.925293E-1,-4.3374162E-2,1.0558902E0,-1.684049E-1,-6.9836274E-2,3.298749E-1,-1.7982498E-1,7.375497E-1,1.0256056E0,-1.7258411E-2,8.1103396E-1,3.8184056E-3,6.773508E-2,1.7662596E-2,-6.279849E-2,3.635926E-2,-3.2321744E-2,-3.3031758E-2,-6.62549E-3,4.5949113E-2,4.9836724E-3,4.0073734E-2,5.4008216E-2,1.2517208E-2,4.59884E-2],"categories":[],"categories_nodes":[],"categories_segments":[],"categories_sizes":[],"default_left":[0,0,0,0,0,0,0,0,0,0,0,0,0,0,0,0,0,0,0,0,0,0,0,0,0,0,0,0,0,0,0,0,0,0,0,0,0,0,0,0,0,0,0,0,0],"id":29,"left_children":[1,3,5,7,9,11,-1,-1,13,15,17,19,-1,-1,-1,21,-1,23,25,27,29,-1,31,33,-1,35,37,39,41,-1,43,-1,-1,-1,-1,-1,-1,-1,-1,-1,-1,-1,-1,-1,-1],"loss_changes":[1.359515E2,8.275753E0,5.0279236E-1,1.5198336E0,6.2667503E0,1.325531E-1,0E0,0E0,1.481645E0,1.0711235E1,8.437836E0,1.3406372E-1,0E0,0E0,0E0,6.1882715E0,0E0,1.30013E1,8.70027E0,1.9680786E-1,1.7491522E0,0E0,3.5962572E0,1.3980776E1,0E0,1.431965E1,1.2722338E1,1.8205919E0,3.383484E-1,0E0,1.4249182E-1,0E0,0E0,0E0,0E0,0E0,0E0,0E0,0E0,0E0,0E0,0E0,0E0,0E0,0E0],"parents":[2147483647,0,0,1,1,2,2,3,3,4,4,5,5,8,8,9,9,10,10,11,11,15,15,17,17,18,18,19,19,20,20,22,22,23,23,25,25,26,26,27,27,28,28,30,30],"right_children":[2,4,6,8,10,12,-1,-1,14,16,18,20,-1,-1,-1,22,-1,24,26,28,30,-1,32,34,-1,36,38,40,42,-1,44,-1,-1,-1,-1,-1,-1,-1,-1,-1,-1,-1,-1,-1,-1],"split_conditions":[2E0,3E0,1.6947389E0,5.12E4,-1.3929589E0,2.23E2,1.1610419E-2,-5.2993465E-2,1.66E2,7E0,-1.3889241E0,8.3E1,1.34749925E-2,-3.2441247E-2,2.6422698E-2,8E0,-5.464537E-2,1.3E1,5E0,4E0,2E0,-4.3374162E-2,2E0,1.1501E4,-6.9836274E-2,1.4013167E-1,1E1,6.5E1,3E0,-1.7258411E-2,1.8E1,3.8184056E-3,6.773508E-2,1.7662596E-2,-6.279849E-2,3.635926E-2,-3.2321744E-2,-3.3031758E-2,-6.62549E-3,4.5949113E-2,4.9836724E-3,4.0073734E-2,5.4008216E-2,1.2517208E-2,4.59884E-2],"split_indices":[2,15,5,14,6,16,0,0,16,9,5,0,0,0,0,19,0,19,15,19,9,0,11,14,0,6,15,0,2,0,15,0,0,0,0,0,0,0,0,0,0,0,0,0,0],"split_type":[0,0,0,0,0,0,0,0,0,0,0,0,0,0,0,0,0,0,0,0,0,0,0,0,0,0,0,0,0,0,0,0,0,0,0,0,0,0,0,0,0,0,0,0,0],"sum_hessian":[7.841408E2,6.621477E2,1.219931E2,1.38027315E1,6.48345E2,1.20335526E2,1.6575751E0,1.1481082E1,2.3216503E0,1.5546065E1,6.327989E2,1.1915906E2,1.1764698E0,1.2804775E0,1.0411727E0,1.28031435E1,2.7429214E0,3.6013798E1,5.967851E2,1.1298838E2,6.1706767E0,1.162869E0,1.1640275E1,2.2860834E1,1.3152965E1,3.4704163E1,5.6208093E2,1.55226345E1,9.7465744E1,1.0566127E0,5.1140637E0,3.0144148E0,8.62586E0,1.5906418E1,6.9544153E0,2.4847582E1,9.856582E0,4.9195972E1,5.12885E2,1.1742111E1,3.7805238E0,2.2152372E1,7.531337E1,1.3670723E0,3.7469916E0],"tree_param":{"num_deleted":"0","num_feature":"20","num_nodes":"45","size_leaf_vector":"1"}},{"base_weights":[-1.0338867E-3,-1.7220733E-1,9.5103E-1,-9.0922534E-1,-1.5564586E-1,9.593386E-1,1.12708565E-2,-8.603676E-2,-5.2193668E-2,-1.3299896E-1,-5.826885E-1,9.64084E-1,1.3158384E-2,-3.121147E-2,2.4469329E-2,-2.4994196E-1,-2.3679884E-2,-8.176213E-1,5.7590406E-2,9.7999746E-1,5.7900137E-1,5.470979E-1,-3.3644664E-1,-1.4337774E-1,3.5954106E-1,-7.121018E-2,-1.6695319E-1,7.215866E-1,1.0136062E0,4.623061E-2,-1.015859E-1,3.9393675E-2,-6.0190726E-2,-1.1128723E-2,-4.4113625E-2,-3.1049196E-2,2.5958623E-4,-6.409796E-2,2.4655512E-2,6.3097455E-2,-3.1131405E-2,4.522599E-2,4.8000505E-3,3.9280187E-2,5.3488184E-2,3.233055E-2,-4.405665E-2],"categories":[],"categories_nodes":[],"categories_segments":[],"categories_sizes":[],"default_left":[0,0,0,0,0,0,0,0,0,0,0,0,0,0,0,0,0,0,0,0,0,0,0,0,0,0,0,0,0,0,0,0,0,0,0,0,0,0,0,0,0,0,0,0,0,0,0],"id":30,"left_children":[1,3,5,7,9,11,-1,13,-1,15,17,19,-1,-1,-1,21,23,25,-1,27,29,31,33,35,37,-1,39,41,43,-1,45,-1,-1,-1,-1,-1,-1,-1,-1,-1,-1,-1,-1,-1,-1,-1,-1],"loss_changes":[1.2707682E2,7.925852E0,5.001526E-1,1.4972887E0,6.185672E0,1.3339233E-1,0E0,1.2663552E0,0E0,7.87282E0,1.4111289E1,1.4348602E-1,0E0,0E0,0E0,2.0706915E1,1.4713376E1,1.1227097E1,0E0,2.2359467E-1,1.7516813E0,1.3394855E1,1.6531528E1,1.7336323E1,1.7374357E1,0E0,1.064857E1,1.7587004E0,3.7387085E-1,0E0,2.4796727E0,0E0,0E0,0E0,0E0,0E0,0E0,0E0,0E0,0E0,0E0,0E0,0E0,0E0,0E0,0E0,0E0],"parents":[2147483647,0,0,1,1,2,2,3,3,4,4,5,5,7,7,9,9,10,10,11,11,15,15,16,16,17,17,19,19,20,20,21,21,22,22,23,23,24,24,26,26,27,27,28,28,30,30],"right_children":[2,4,6,8,10,12,-1,14,-1,16,18,20,-1,-1,-1,22,24,26,-1,28,30,32,34,36,38,-1,40,42,44,-1,46,-1,-1,-1,-1,-1,-1,-1,-1,-1,-1,-1,-1,-1,-1,-1,-1],"split_conditions":[2E0,3E0,1.6947389E0,6.8E1,8.1E1,2.23E2,1.12708565E-2,1.89E2,-5.2193668E-2,1E0,2E1,8.3E1,1.3158384E-2,-3.121147E-2,2.4469329E-2,1.3E1,4E0,1.24E2,5.7590406E-2,4E0,1.1E1,1.8E1,1.4138012E-3,7E0,9E0,-7.121018E-2,1.37E2,6.5E1,3E0,4.623061E-2,7.700422E-3,3.9393675E-2,-6.0190726E-2,-1.1128723E-2,-4.4113625E-2,-3.1049196E-2,2.5958623E-4,-6.409796E-2,2.4655512E-2,6.3097455E-2,-3.1131405E-2,4.522599E-2,4.8000505E-3,3.9280187E-2,5.3488184E-2,3.233055E-2,-4.405665E-2],"split_indices":[2,15,5,18,0,16,0,16,0,4,19,0,0,0,0,16,11,16,0,19,19,19,1,19,15,0,16,0,2,0,1,0,0,0,0,0,0,0,0,0,0,0,0,0,0,0,0],"split_type":[0,0,0,0,0,0,0,0,0,0,0,0,0,0,0,0,0,0,0,0,0,0,0,0,0,0,0,0,0,0,0,0,0,0,0,0,0,0,0,0,0,0,0,0,0,0,0],"sum_hessian":[7.7776025E2,6.599294E2,1.1783087E2,1.3318744E1,6.466106E2,1.16178474E2,1.6523983E0,2.1026835E0,1.121606E1,6.1529193E2,3.1318695E1,1.1500968E2,1.1687964E0,1.0426638E0,1.0600197E0,2.9665826E2,3.1863364E2,2.804825E1,3.2704456E0,1.0896195E2,6.0477242E0,2.8523443E1,2.6813483E2,2.4327373E2,7.535992E1,1.3900623E1,1.4147627E1,1.5126608E1,9.383535E1,3.7731304E0,2.2745938E0,2.5558767E1,2.9646752E0,2.2301617E2,4.5118668E1,5.6965855E1,1.8630788E2,5.0236764E0,7.033624E1,2.9929492E0,1.1154677E1,1.135911E1,3.7674978E0,2.1506624E1,7.232873E1,1.2476494E0,1.0269443E0],"tree_param":{"num_deleted":"0","num_feature":"20","num_nodes":"47","size_leaf_vector":"1"}},{"base_weights":[-9.177218E-4,-1.6449727E-1,9.377556E-1,-8.98123E-1,-1.4851367E-1,9.4628704E-1,1.094139E-2,-5.200799E-2,-9.831088E-2,-5.3771343E-2,-2.4769606E-1,1.2311383E-2,9.512535E-1,-3.1134037E-2,2.6206017E-2,-6.6203916E-1,2.6100727E-2,-4.9840146E-1,3.1786885E-2,9.675002E-1,5.651406E-1,1.7273946E-1,-1.2896745E0,-1.4426737E-1,2.7911738E-1,-1.8701853E-1,-8.8555396E-1,4.3828705E-1,-3.8171712E-1,9.7291446E-1,1.28495265E-2,4.560747E-2,-9.9645905E-2,-3.897546E-2,4.7683463E-2,5.5256873E-2,-7.451849E-2,1.570226E-2,-1.9287497E-2,4.697117E-2,2.1507996E-3,6.675162E-2,-1.4912218E-2,-5.8078837E-2,-9.3476875E-3,-6.408678E-2,3.0453593E-2,-4.113476E-2,9.991578E-3,3.2887567E-2,4.9905874E-2,3.1850867E-2,-4.226434E-2],"categories":[],"categories_nodes":[],"categories_segments":[],"categories_sizes":[],"default_left":[0,0,0,0,0,0,0,0,0,0,0,0,0,0,0,0,0,0,0,0,0,0,0,0,0,0,0,0,0,0,0,0,0,0,0,0,0,0,0,0,0,0,0,0,0,0,0,0,0,0,0,0,0],"id":31,"left_children":[1,3,5,7,9,11,-1,-1,13,15,17,-1,19,-1,-1,21,23,25,27,29,31,33,35,37,39,41,43,45,47,49,-1,-1,51,-1,-1,-1,-1,-1,-1,-1,-1,-1,-1,-1,-1,-1,-1,-1,-1,-1,-1,-1,-1],"loss_changes":[1.1879005E2,7.5919247E0,4.9713135E-1,1.4710951E0,6.056714E0,1.5922546E-1,0E0,0E0,1.3685011E0,1.613039E1,2.2109146E1,0E0,1.559143E-1,0E0,0E0,2.0411757E1,1.2718771E1,1.9879116E1,2.5387306E1,1.5808868E-1,1.6890204E0,1.369721E1,1.2275536E1,1.9647352E1,1.8464031E1,1.621376E1,1.4023548E1,2.3142927E1,1.937594E1,1.7693329E-1,0E0,0E0,2.3387275E0,0E0,0E0,0E0,0E0,0E0,0E0,0E0,0E0,0E0,0E0,0E0,0E0,0E0,0E0,0E0,0E0,0E0,0E0,0E0,0E0],"parents":[2147483647,0,0,1,1,2,2,3,3,4,4,5,5,8,8,9,9,10,10,12,12,15,15,16,16,17,17,18,18,19,19,20,20,21,21,22,22,23,23,24,24,25,25,26,26,27,27,28,28,29,29,32,32],"right_children":[2,4,6,8,10,12,-1,-1,14,16,18,-1,20,-1,-1,22,24,26,28,30,32,34,36,38,40,42,44,46,48,50,-1,-1,52,-1,-1,-1,-1,-1,-1,-1,-1,-1,-1,-1,-1,-1,-1,-1,-1,-1,-1,-1,-1],"split_conditions":[2E0,3E0,1.6947389E0,7.7E1,2E0,3E0,1.094139E-2,-5.200799E-2,-1.436306E-1,1.66E2,1.23E2,1.2311383E-2,8.3E1,-3.1134037E-2,2.6206017E-2,9.4E1,3.1E1,4E0,1.63E2,2.23E2,1.1E1,4E0,4E0,-6.302918E-1,3.4E1,4E0,7E0,-1.0122043E0,2E0,-1.2118962E0,1.28495265E-2,4.560747E-2,7.700422E-3,-3.897546E-2,4.7683463E-2,5.5256873E-2,-7.451849E-2,1.570226E-2,-1.9287497E-2,4.697117E-2,2.1507996E-3,6.675162E-2,-1.4912218E-2,-5.8078837E-2,-9.3476875E-3,-6.408678E-2,3.0453593E-2,-4.113476E-2,9.991578E-3,3.2887567E-2,4.9905874E-2,3.1850867E-2,-4.226434E-2],"split_indices":[2,15,5,0,7,16,0,0,1,18,16,0,0,0,0,16,15,8,16,16,19,13,15,6,15,15,8,6,12,6,0,0,1,0,0,0,0,0,0,0,0,0,0,0,0,0,0,0,0,0,0,0,0],"split_type":[0,0,0,0,0,0,0,0,0,0,0,0,0,0,0,0,0,0,0,0,0,0,0,0,0,0,0,0,0,0,0,0,0,0,0,0,0,0,0,0,0,0,0,0,0,0,0,0,0,0,0,0,0],"sum_hessian":[7.7163116E2,6.578198E2,1.1381137E2,1.2849612E1,6.449702E2,1.1216408E2,1.64729E0,1.0656623E1,2.19299E0,3.3065738E2,3.1431284E2,1.1464063E0,1.1101767E2,1.1900371E0,1.0029528E0,3.7533245E1,2.931241E2,1.6527364E2,1.4903918E2,1.0508997E2,5.9276986E0,1.6419489E1,2.1113756E1,1.7542917E2,1.1769496E2,9.242233E1,7.28513E1,7.512586E1,7.391333E1,1.03928696E2,1.161274E0,3.6502357E0,2.2774632E0,7.3990583E0,9.02043E0,1.2841368E0,1.9829618E1,6.0432724E1,1.14996445E2,3.0214638E1,8.748032E1,5.5446477E0,8.6877686E1,5.1744072E1,2.1107235E1,6.198096E0,6.8927765E1,4.18014E1,3.2111927E1,9.702106E0,9.422659E1,1.2189084E0,1.0585546E0],"tree_param":{"num_deleted":"0","num_feature":"20","num_nodes":"53","size_leaf_vector":"1"}},{"base_weights":[-8.0383074E-4,-1.5716341E-1,9.245239E-1,-8.8718045E-1,-1.4173193E-1,9.332828E-1,1.0621701E-2,-5.1536437E-2,-9.4491646E-2,-1.0849377E-1,-4.1626438E-1,1.2023269E-2,9.383593E-1,-3.0415585E-2,2.5301674E-2,-1.3876848E-1,3.7019658E-1,-3.414699E-2,-8.5156876E-1,9.549246E-1,5.5177885E-1,-8.6736076E-2,-4.5511186E-1,-6.806115E-1,9.326351E-1,-5.8231044E-1,3.2664764E-1,-5.8076035E-2,-2.4286349E-1,6.4271325E-1,9.798202E-1,-1.7925067E-2,7.780576E-1,3.7122287E-3,-1.1191815E-2,-1.2444012E-2,-6.0769837E-2,5.9063237E-2,-4.977103E-2,-5.6981333E-2,6.554501E-2,-6.376221E-2,8.741493E-3,-1.1833469E-2,5.571861E-2,1.6817002E-2,-5.5721946E-2,-1.35775E-2,4.412021E-2,4.9312767E-2,1.2548215E-2,4.475821E-2,1.013201E-2],"categories":[],"categories_nodes":[],"categories_segments":[],"categories_sizes":[],"default_left":[0,0,0,0,0,0,0,0,0,0,0,0,0,0,0,0,0,0,0,0,0,0,0,0,0,0,0,0,0,0,0,0,0,0,0,0,0,0,0,0,0,0,0,0,0,0,0,0,0,0,0,0,0],"id":32,"left_children":[1,3,5,7,9,11,-1,-1,13,15,17,-1,19,-1,-1,21,23,25,27,29,31,33,35,37,39,41,43,-1,45,47,49,-1,51,-1,-1,-1,-1,-1,-1,-1,-1,-1,-1,-1,-1,-1,-1,-1,-1,-1,-1,-1,-1],"loss_changes":[1.11004135E2,7.267771E0,4.934616E-1,1.426938E0,5.830537E0,1.5863037E-1,0E0,0E0,1.2813029E0,8.394936E0,1.147949E1,0E0,1.6547394E-1,0E0,0E0,8.885343E0,2.1035759E1,7.6832423E0,5.812191E0,1.6547394E-1,1.6819236E0,1.0320405E1,1.166888E1,8.568541E0,1.9449118E1,8.301395E0,1.0686678E1,0E0,6.514822E0,2.532312E0,1.8797302E-1,0E0,2.0746541E-1,0E0,0E0,0E0,0E0,0E0,0E0,0E0,0E0,0E0,0E0,0E0,0E0,0E0,0E0,0E0,0E0,0E0,0E0,0E0,0E0],"parents":[2147483647,0,0,1,1,2,2,3,3,4,4,5,5,8,8,9,9,10,10,12,12,15,15,16,16,17,17,18,18,19,19,20,20,21,21,22,22,23,23,24,24,25,25,26,26,28,28,29,29,30,30,32,32],"right_children":[2,4,6,8,10,12,-1,-1,14,16,18,-1,20,-1,-1,22,24,26,28,30,32,34,36,38,40,42,44,-1,46,48,50,-1,52,-1,-1,-1,-1,-1,-1,-1,-1,-1,-1,-1,-1,-1,-1,-1,-1,-1,-1,-1,-1],"split_conditions":[2E0,3E0,1.6947389E0,5.12E4,8.63E2,3E0,1.0621701E-2,-5.1536437E-2,7.5E1,8.2E2,2.3E1,1.2023269E-2,8.3E1,-3.0415585E-2,2.5301674E-2,7.5E1,8.545052E-3,1E0,1.7E1,-1.2118962E0,2E0,-2.2455317E-1,3.7E1,-6.4470387E-1,4E1,1.7E1,9.73E2,-5.8076035E-2,5.9E1,5E0,2.23E2,-1.7925067E-2,6.1416113E-1,3.7122287E-3,-1.1191815E-2,-1.2444012E-2,-6.0769837E-2,5.9063237E-2,-4.977103E-2,-5.6981333E-2,6.554501E-2,-6.376221E-2,8.741493E-3,-1.1833469E-2,5.571861E-2,1.6817002E-2,-5.5721946E-2,-1.35775E-2,4.412021E-2,4.9312767E-2,1.2548215E-2,4.475821E-2,1.013201E-2],"split_indices":[2,15,5,14,18,16,0,0,0,18,15,0,0,0,0,0,5,10,19,6,9,5,15,1,0,15,18,0,0,18,16,0,1,0,0,0,0,0,0,0,0,0,0,0,0,0,0,0,0,0,0,0,0],"split_type":[0,0,0,0,0,0,0,0,0,0,0,0,0,0,0,0,0,0,0,0,0,0,0,0,0,0,0,0,0,0,0,0,0,0,0,0,0,0,0,0,0,0,0,0,0,0,0,0,0,0,0,0,0],"sum_hessian":[7.652143E2,6.553116E2,1.0990276E2,1.2396133E1,6.429154E2,1.08260506E2,1.6422541E0,1.024125E1,2.154884E0,5.747273E2,6.818812E1,1.1393285E0,1.0712118E2,1.1542883E0,1.0005959E0,5.4120874E2,3.3518578E1,3.6886757E1,3.1301363E1,1.0130979E2,5.811386E0,4.658582E2,7.535054E1,1.1612587E1,2.190599E1,1.4397833E1,2.2488922E1,2.0138618E1,1.11627445E1,9.46221E0,9.184759E1,1.040659E0,4.770727E0,2.144791E2,2.5137909E2,6.0316658E1,1.5033886E1,1.2814403E0,1.0331147E1,3.0707304E0,1.883526E1,7.160376E0,7.2374573E0,1.3520036E1,8.968886E0,7.0751023E0,4.087642E0,1.9378126E0,7.524397E0,9.069368E1,1.153902E0,3.5022793E0,1.2684478E0],"tree_param":{"num_deleted":"0","num_feature":"20","num_nodes":"53","size_leaf_vector":"1"}},{"base_weights":[-8.2665024E-4,-1.503317E-1,9.1146237E-1,-8.7645555E-1,-1.3543573E-1,9.204524E-1,1.031147E-2,-3.2303787E-3,-5.0813317E-2,-4.307726E-1,-1.04057066E-1,6.667187E-1,9.5142853E-1,-7.32263E-2,-9.507192E-1,-3.0049523E-2,-2.8083292E-1,8.643369E-1,2.590771E-2,7.151671E-1,1.0109069E0,4.742876E-1,-7.844312E-1,-6.51895E-2,-2.135033E-3,-1.32154E-1,3.3114243E-1,6.2946896E-3,-5.295122E-1,2.083517E-1,5.003622E-2,-3.2483242E-2,3.6065347E-2,8.223468E-1,-1.1400045E-2,3.8332182E-1,1.0349982E0,-3.0560022E-2,4.2350918E-2,-6.2371094E-2,1.4540809E-2,4.8499364E-2,-5.3379696E-2,-7.0330605E-2,-4.4676107E-3,2.469122E-2,-2.5961516E-2,-4.059667E-2,1.5828663E-2,2.7662904E-3,-4.832917E-2,-1.248808E-2,2.9179592E-2,4.5169197E-2,-5.276831E-4,3.710518E-2,-1.3103205E-2,2.785332E-2,5.3743E-2],"categories":[],"categories_nodes":[],"categories_segments":[],"categories_sizes":[],"default_left":[0,0,0,0,0,0,0,0,0,0,0,0,0,0,0,0,0,0,0,0,0,0,0,0,0,0,0,0,0,0,0,0,0,0,0,0,0,0,0,0,0,0,0,0,0,0,0,0,0,0,0,0,0,0,0,0,0,0,0],"id":33,"left_children":[1,3,5,7,9,11,-1,-1,-1,13,15,17,19,21,23,25,27,29,31,33,35,37,39,-1,41,43,45,47,49,51,-1,-1,-1,53,-1,55,57,-1,-1,-1,-1,-1,-1,-1,-1,-1,-1,-1,-1,-1,-1,-1,-1,-1,-1,-1,-1,-1,-1],"loss_changes":[1.03778656E2,6.952426E0,4.894333E-1,1.4052353E0,5.902788E0,1.948471E-1,0E0,0E0,0E0,1.1330161E1,7.598737E0,1.8543367E0,5.653534E-1,1.4942435E1,8.337461E0,1.5200874E1,1.224704E1,8.02125E-1,2.5939283E0,2.3969326E0,6.7404175E-1,9.323807E0,8.653027E0,0E0,9.069249E0,1.7391645E1,1.2826363E1,2.0712793E1,2.3544844E1,6.970957E-1,0E0,0E0,0E0,1.3488712E0,0E0,1.1684772E0,6.893997E-1,0E0,0E0,0E0,0E0,0E0,0E0,0E0,0E0,0E0,0E0,0E0,0E0,0E0,0E0,0E0,0E0,0E0,0E0,0E0,0E0,0E0,0E0],"parents":[2147483647,0,0,1,1,2,2,3,3,4,4,5,5,9,9,10,10,11,11,12,12,13,13,14,14,15,15,16,16,17,17,18,18,19,19,20,20,21,21,22,22,24,24,25,25,26,26,27,27,28,28,29,29,33,33,35,35,36,36],"right_children":[2,4,6,8,10,12,-1,-1,-1,14,16,18,20,22,24,26,28,30,32,34,36,38,40,-1,42,44,46,48,50,52,-1,-1,-1,54,-1,56,58,-1,-1,-1,-1,-1,-1,-1,-1,-1,-1,-1,-1,-1,-1,-1,-1,-1,-1,-1,-1,-1,-1],"split_conditions":[2E0,3E0,1.6947389E0,6.8E1,-4.1562048E-1,4E0,1.031147E-2,-3.2303787E-3,-5.0813317E-2,2E0,-8.500893E-2,6.5E1,3E0,-6.4158165E-1,6.9E1,-1.738696E-1,1E1,1E0,2E0,1.7E1,1E0,1.058E4,4E0,-6.51895E-2,-6.4470387E-1,8.1E1,1.0000044E0,-6.904668E-2,4E0,1E0,5.003622E-2,-3.2483242E-2,3.6065347E-2,2.6E1,-1.1400045E-2,6.2E1,3E0,-3.0560022E-2,4.2350918E-2,-6.2371094E-2,1.4540809E-2,4.8499364E-2,-5.3379696E-2,-7.0330605E-2,-4.4676107E-3,2.469122E-2,-2.5961516E-2,-4.059667E-2,1.5828663E-2,2.7662904E-3,-4.832917E-2,-1.248808E-2,2.9179592E-2,4.5169197E-2,-5.276831E-4,3.710518E-2,-1.3103205E-2,2.785332E-2,5.3743E-2],"split_indices":[2,15,5,18,1,19,0,0,0,7,1,0,2,5,0,1,19,12,11,19,9,14,11,0,1,18,5,6,9,13,0,0,0,17,0,0,18,0,0,0,0,0,0,0,0,0,0,0,0,0,0,0,0,0,0,0,0,0,0],"split_type":[0,0,0,0,0,0,0,0,0,0,0,0,0,0,0,0,0,0,0,0,0,0,0,0,0,0,0,0,0,0,0,0,0,0,0,0,0,0,0,0,0,0,0,0,0,0,0,0,0,0,0,0,0,0,0,0,0,0,0],"sum_hessian":[7.5888165E2,6.5274554E2,1.0613611E2,1.1958829E1,6.407867E2,1.0449881E2,1.6372937E0,1.9717071E0,9.987122E0,6.0320457E1,5.8046625E2,1.3819889E1,9.0678925E1,3.6418056E1,2.39024E1,4.0999222E2,1.7047401E2,1.0295934E1,3.5239553E0,2.0856462E1,6.9822464E1,2.0765257E1,1.56528015E1,1.7146042E1,6.7563567E0,3.2012967E2,8.986256E1,7.957297E1,9.0901054E1,2.207265E0,8.088669E0,1.820818E0,1.7031373E0,1.8843254E1,2.0132077E0,3.2063794E0,6.661608E1,5.1442075E0,1.5621049E1,1.0829572E1,4.8232293E0,3.5797799E0,3.1765769E0,9.366651E0,3.10763E2,7.578388E1,1.4078675E1,2.1433752E1,5.8139214E1,3.9251995E1,5.164906E1,1.1444519E0,1.062813E0,1.7095339E1,1.7479163E0,1.9644473E0,1.241932E0,6.2811937E0,6.033489E1],"tree_param":{"num_deleted":"0","num_feature":"20","num_nodes":"59","size_leaf_vector":"1"}},{"base_weights":[-8.897603E-4,-1.4388913E-1,8.9875054E-1,-8.639507E-1,-1.295292E-1,9.079732E-1,1.0010391E-2,-5.0650615E-2,-6.968107E-2,4.6672022E-1,-1.4486939E-1,9.250463E-1,5.157702E-1,-2.849156E-2,2.3465332E-2,8.27021E-1,-5.1909536E-2,-4.4259074E-1,-9.882638E-2,6.5338385E-1,9.6135247E-1,4.413366E-2,-1.5431301E-1,-4.0914774E-2,1.0391296E0,7.9102464E-2,-5.2550066E-1,6.025205E-1,-1.4192447E-1,8.52387E-1,2.5758946E-2,7.16011E-1,1.0225141E0,-4.3121815E-2,3.0091072E-2,5.293899E-3,6.583985E-2,-1.0469764E-2,-5.53523E-2,3.8844347E-2,-5.6221534E-2,-9.381316E-3,2.145118E-2,1.0212323E-2,4.954801E-2,-3.0975914E-2,3.554276E-2,4.322913E-2,4.9234605E-3,2.2192169E-2,5.2490246E-2],"categories":[],"categories_nodes":[],"categories_segments":[],"categories_sizes":[],"default_left":[0,0,0,0,0,0,0,0,0,0,0,0,0,0,0,0,0,0,0,0,0,0,0,0,0,0,0,0,0,0,0,0,0,0,0,0,0,0,0,0,0,0,0,0,0,0,0,0,0,0,0],"id":34,"left_children":[1,3,5,7,9,11,-1,-1,13,15,17,19,21,-1,-1,23,-1,25,27,29,31,-1,33,-1,35,-1,37,39,41,43,45,47,49,-1,-1,-1,-1,-1,-1,-1,-1,-1,-1,-1,-1,-1,-1,-1,-1,-1,-1],"loss_changes":[9.714556E1,6.6251926E0,4.854355E-1,1.4168453E0,5.9213486E0,2.0545197E-1,0E0,0E0,1.0920737E0,9.691086E0,8.5196705E0,3.228836E-1,1.7373294E0,0E0,0E0,5.6312275E0,0E0,1.4828377E1,1.6478018E1,1.7876678E0,5.123215E-1,0E0,2.2085505E0,0E0,3.1193361E0,0E0,1.4631567E1,1.0385116E1,1.3433298E1,7.828245E-1,2.4382122E0,1.7393064E0,5.455246E-1,0E0,0E0,0E0,0E0,0E0,0E0,0E0,0E0,0E0,0E0,0E0,0E0,0E0,0E0,0E0,0E0,0E0,0E0],"parents":[2147483647,0,0,1,1,2,2,3,3,4,4,5,5,8,8,9,9,10,10,11,11,12,12,15,15,17,17,18,18,19,